0
-1.1892487987007339
1.7251674112484752
-0.11812982970953033
-0.5984816527701299
0.6352156191713236
-0.37854665692446693
-1.3264773928462026
-1.3965473232508818
0.6942495095623936
-0.20697510556938017
-0.052949318286783814
0.9284794262370546
-1.1919247118248533
-0.7821158075361659
-0.4395423755803915
0.031615968263199005
-0.07542619942524273
-0.30658837332906186
-0.10776381142885938
-0.15570524212493175
-0.7969404517660656
-0.8615395143253327
0.30616201319426384
-0.9297243963284717
-1.0430967687001806
-0.45263988011760636
-0.1855033976508759
2.1456852561710935
-0.7798571318287081
0.9025069032694527
0.7478125900205548
-1.0756221657231346
0.7409146560841959
-1.2203615101111518
-2.618888297488037
0.585114589795471
-1.773127293943727
0.4862678301084914
-0.5608824876521071
1.6282810964725798
1.134410849285633
-0.40325962623797457
-0.7113097112400381
-1.314163603761659
-0.4455546447530419
-0.17834812277817275
-0.34640057954935116
0.2269753717616594
0.4623962954004192
0.380136957572462
-0.8205045114886276
-1.4313101303700893
1.4804206206903219
-0.7138212607445092
-0.6631914813377219
-0.48685551590834514
-1.830890572463351
-0.5539695634577783
-0.4611057953815877
0.6188329720056384
0.6876640662568708
0.04533822629716103
0.8833113296044409
0.3541747042407772
0.016367070587570896
0.1784114182852901
-0.25363430792365055
-0.40242567717595734
-0.38007254094314613
-1.3055620494390388
0.2867997911314083
-1.085540159876239
0.7427721322881025
-0.30816089396724455
0.02420795191515075
0.549830994718559
0.6241586996865621
-1.6691376785026246
-0.1565399450515076
0.7989728264257587
-1.729362823801129
0.3321339165171111
-2.306633243903895
-1.1036622047257083
-0.04383478810722371
-1.6643623138038222
-1.056905698239686
-1.478092727953322
1.683948775602266
0.10929898287582182
0.5314479715661568
-0.3321346985359898
-0.34657202395991327
-1.709380732759247
-0.4046790676738889
-0.7037984063901311
0.7520335786817743
1.133755759062944
1.50146461444293
0.8978454282168203
-0.534510224219912
-1.0286768353772748
0.71043613872368
0.2869938142696166
-1.8035815921519704
0.2634206658821106
0.8169633633742897
0.06055881381071993
-0.12200488392042
-0.875961971196394
-1.382363433942141
0.7512954320723653
-0.29432929185959067
-0.20626228591791693
1.724211467574151
0.5764381368304502
0.370531943614628
0.07647607472364368
1.4579372588146893
1.7403738338161094
0.9296638866504436
0.6404519302615923
-2.066049870601786
0.08009837694736749
-0.11547770543591615
0.09594981784910316
0.8976926593390404
-2.793929943093847
-0.5671071398306508
0.3299351333638501
-0.5596860099485158
-1.3407077088130643
0.7824195418719435
0.26456606834025514
-0.8944199509310482
0.337761355558331
0.759982418280636
0.07052381872374648
0.8537017859424917
0.022159980646941062
-0.4298576893361193
-1.1862052449419367
-0.009993403395863652
0.20765220521658992
0.8920391671840064
-0.10900939688150857
0.40902268239836687
-0.9941207491490185
-0.8458171683174257
-0.143937966342909
-1.0462424087163378
0.8044350771805108
0.4729794132399759
0.33510519846322817
0.28213137463417937
2.0872202306017242
-0.3832282319745631
-2.1776567306095274
0.13841345039070024
0.0511087766807828
-0.5351299720279157
-1.0173535789756032
-0.4827301658099956
0.12203187663732047
-0.5207348935810393
2.435205551100816
-0.8829546887354047
-0.6618463182467191
-2.318433003161548
0.2277277822805078
-1.8973875306430692
-0.5159532186047525
-0.27107499521721995
-0.7791509756337048
1.6718876526847621
0.9084989954892957
1.187563078685723
-0.9881201945268523
1.1036575276689133
0.5963030581923179
0.8043894332797127
0.9949680467259523
-0.8666307124079521
-0.4402358546964135
0.9151295187033526
-2.67152009136608
1.5314754578774383
0.7161603588771469
-0.07081561420948038
0.11647548300842891
-1.0768184324765968
-0.39814061868576495
1.06179852367245
1.2025471905782923
2.728666140418873
-0.07470384832881911
-0.5543702544105494
-0.5910132840372644
-1.0115691189319347
-0.017089985546466624
0.35875339642928034
-0.04642334943970552
1.153581402057682
-0.13465846035308263
-0.2699462679060331
-0.6270987272970799
-1.7015807508513687
-1.5313414693448333
-1.2340025189374604
1.3525630891655884
0.8457161312615848
1.2409859728777062
-1.3732288188232413
-1.8762693901768288
-0.6605937809570231
0.06947275739315252
0.5131952833798765
0.984042565631988
0.34028785396809547
1.7485418012589562
-0.16632768674128015
-1.0568360027869894
-1.7378587691390988
-1.0035984124389206
0.22903749376109517
-0.9072970126296407
0.8341904327573296
1.391813503277755
-2.43195733538497
0.7789145222604286
-2.327878109691583
0.43070170343706726
1.2563238793037284
0.09405260611056114
-1.337568202246301
-0.5491959573114663
-0.22902823746648984
-0.26502920487259896
-0.11636503506063726
-0.08426351291039733
0.25165587385531807
-1.198026454604127
-0.2502662794521126
1.518353581643886
-0.5418529149006691
-0.48335972620170287
1.0234753325220778
-2.5640196286099863
1.1567335726580372
-0.7288286159739625
0.2508442071350931
0.07029208795091671
0.8992573345147957
-0.25263297999148954
-0.5861753928660117
1.4053888573153197
-2.2909030716165035
0.004818012949928191
-1.3316797500541733
-0.7991574167823399
2.046497773652712
-0.06269297212906513
0.20704161590918954
-1.8383468554436453
-0.8241497833675373
0.17093566662906043
0.3475746272533133
0.5161917325898233
-0.025184851958370814
0.519079476817911
0.4826076630853564
-1.7498128196396194
-0.04769997249618125
0.6881046144035337
0.6013029687173312
-0.37073834853159265
-0.724407729399397
-1.0065190115520035
-0.03520252870100084
1.0617569615561102
-2.052556158536523
-0.5727307511502204
-1.2615477487890963
0.7575009725769235
-0.6383109118337763
-0.5466482160497766
-0.22672088319969771
0.34103848277763416
-0.3420237846087843
-3.0838152550935853
0.5463134031242641
0.42385260929605656
-0.15404953930623352
-1.0597684304121895
0.4220033523876077
0.4390040275410945
-0.42409679226375957
-0.21862760939595643
-0.9992047695146296
-0.29949631764111817
