,0,1,2,3,4,5,6,7,8,9,10,11,12,13,14,15,16,17,18,19,20,21,22,23,24,25,26,27,28,29,30,31,32,33,34,35,36,37,38,39,40,41,42,43,44,45,46,47,48,49,50,51,52,53,54,55,56,57,58,59,60,61,62,63,64,65,66,67,68,69,70,71,72,73,74,75,76,77,78,79,80,81,82,83,84,85,86,87,88,89,90,91,92,93,94,95,96,97,98,99,100,101,102,103,104,105,106,107,108,109,110,111,112,113,114,115,116,117,118,119,120,121,122,123,124,125,126,127,128,129,130,131,132,133,134,135,136,137,138,139,140,141,142,143,144,145,146,147,148,149,150,151,152,153,154,155,156,157,158,159,160,161,162,163,164,165,166,167,168,169,170,171,172,173,174,175,176,177,178,179,180,181,182,183,184,185,186,187,188,189,190,191,192,193,194,195,196,197,198,199,200,201,202,203,204,205,206,207,208,209,210,211,212,213,214,215,216,217,218,219,220,221,222,223,224,225,226,227,228,229,230,231,232,233,234,235,236,237,238,239,240,241,242,243,244,245,246,247,248,249,250,251,252,253,254,255,256,257,258,259,260,261,262,263,264,265,266,267,268,269,270,271,272,273,274,275,276,277,278,279,280,281,282,283,284,285,286,287,288,289,290,291,292,293,294,295,296,297,298,299
0,0.7139529146424117,-1.193957695536571,0.8370140465888558,-0.27486067031201583,1.419380069005438,-0.3285952147732976,0.1858064897753135,0.32587584931463975,-0.11033117655245793,1.2546928925892247,-1.0497861618759332,0.18262340630389856,0.20265504195913842,-1.4016621924292205,-0.8148269009150355,0.8727277748526442,-0.17139901365309843,-0.5491818104965155,0.4299296212325332,0.8553985285282211,-1.870138237313476,-1.0585313501090854,0.572829681852436,-0.12886980951790983,-1.3601162994738056,0.5118419210253873,-0.5743668746096905,-0.768862836108342,-0.011517295752884958,-0.1450533147518031,-0.013476021096913805,-0.7530416813213955,0.4545500771959776,1.0179058241458236,-1.0758919609864048,0.9891250456415808,1.2612740301433785,-0.4492136246525343,-0.24368868013599773,0.041650668795834636,0.5838342211748151,-0.28243402715575916,0.14525702523848494,0.3016629235223474,-1.1504627611792568,-0.7436618076579978,-0.5195737406792469,-0.3919566128406138,0.9309846570854017,0.3146882876866713,-0.8404147183223402,1.071462835653202,-0.8901115613026255,0.9173889624483295,0.31178466577569813,-1.4388841358389668,0.6540250768917436,-0.009633130012400168,-0.7509343954263505,1.038039848593103,0.9127261062484541,0.6335857863041972,-0.7431099635255186,0.2741501460427513,-0.8726415251599143,0.577338597447477,-1.9932673372226262,0.9212138194649906,-1.3931739906756733,-1.2581243670359357,2.17656376602315,-0.9706904283429038,-0.7205712839840379,0.725279874231126,-0.3218241869908561,-0.2826197602730189,0.47356175987634264,-0.018130937775673216,0.48867161622448113,-0.889041566173667,0.21486041941179476,-0.4059318735813817,0.37958242022096494,-0.9211635298834708,-0.70885390858738,-0.3165623798087892,-0.5932772134541737,-0.8653124312865724,0.3299158333857583,-0.07344565501839775,-0.16207151908599413,-1.3039296375795153,-0.37581959472793897,-0.7464524395866362,-1.248381954800435,0.6959046196514858,-0.8366469249697073,-0.3457926742381892,0.44163323203150123,0.04850831806510783,0.768831424700591,-0.27802006566466186,0.40643930017616936,-0.677479475628706,0.22078850067105246,-1.2241141807960483,1.4810986446087013,-0.7615776291082366,0.7537464918454395,0.7698420312656654,2.223759378108146,-0.27240712502963504,0.7678736264418345,-0.1806106687288012,-1.3206393630032682,-0.5326880333979693,1.6841593688261802,-0.3816891133107753,0.7678757606488741,0.3044828809125977,-0.07568051107147944,-1.5137423540330406,-0.9189302207986583,0.8590362304552097,-1.748814069952264,-0.3641220267890034,-0.8415787640405755,0.02195880495893646,-0.367733641978656,0.05996946516219884,-0.9547441760256019,-0.6947213075887066,-0.12073058717296135,-1.1067811495040805,-0.6000560999207657,-0.7138607596373712,0.09492650583500221,0.21935659222703785,0.3247779478416663,1.09835287117147,0.6598167452892897,-0.19036344638745467,-0.00590417211469053,-0.043525066857462054,0.9377658843787776,0.5734398906518399,0.016974517982091472,-1.338931383862113,0.7609913546117612,1.2599710605388508,0.9703439957252662,0.3423929253706861,0.307027201824258,-1.1054271335129808,-0.4053389466246838,-0.33690872999334914,-0.2679761640210256,0.4527818460800172,0.686354793531527,0.2272683702615765,0.6789523357602553,-1.0769789967856183,-1.0787102646539637,1.0573238902213193,0.09947377812053114,0.5326173997080584,-0.09927048215334511,0.7454628397366394,-1.40824549748327,0.02734731389627438,-1.5013318589570726,-0.9424698921117229,-0.24452494226277274,-0.6918630877194968,-0.622662729710207,-0.5699190946762919,-0.5902572692843846,-1.8320897396331994,-0.5878121716603651,-0.15014530484039681,0.7733974347840032,0.7633223718587461,-1.0937379007756554,-0.1411959299120593,0.6296476257057878,-0.4530803674402595,1.104979727043371,0.14000235941802544,-0.6141321031973882,-0.5487656805446077,0.13910474126243144,-0.9922287572825695,0.4573193368178263,0.23756689914852605,0.364576997470594,1.1896782889968893,-0.3908358279906579,1.1852963087829886,-0.2253328716500862,0.5450397460127497,-0.3650623646146109,-0.6097976723730316,-1.0313203814553007,0.09411778434653857,2.057165687896642,0.7187322477740332,1.1161426693386955,1.5200398650201885,-0.5686403386210155,-0.48706969285935087,1.194823797574732,1.3255695654481017,-1.8111550490947903,-1.5597115630817542,1.0384366090437882,-0.3902090194604982,0.7757816914712876,0.6778554235484648,0.2970859730474284,0.15183405528103822,-1.119981879444972,-0.7329606001845416,-0.13952984643121663,-0.11930482005009925,0.6331625931337405,-0.8961136938718779,-0.20721203402817784,-0.6180992638811426,-0.17990445300111368,1.261116015267566,-1.0939164019563659,1.5174024241563944,-1.2066017326564082,0.369768634128559,0.11962334729152918,1.852378996884073,0.11154355388937393,1.3263463207633421,-0.28224182864582714,0.26531913518142897,-0.11892549375286753,-1.703664470469089,-0.35395576377027804,-0.20912096186669105,-0.9803384108815677,0.10536467612240584,-1.719534047126965,0.5750038231323733,0.0946504901482607,-0.17826463124079617,-1.7123516245998411,-1.6884773342033177,-0.0937398554937768,0.8503381792392959,1.1473222922192732,-0.16577466733330262,-0.2543974632350115,1.0030085956532246,-1.154009052923306,0.729969498426924,-2.2311593205678784,-2.2217004966196234,-0.25686299148149266,0.27314219794217215,-0.29731183330346556,0.7051322549775443,-0.48440848865387776,-1.5606879896978305,1.242498119828606,1.2108817270287096,-0.6848119909691913,1.4137976475087755,-0.4884995894291714,-0.10541697168670289,-1.2107529131111365,0.21803185536536626,0.5697534302703113,-0.5620418167762281,-0.16542131126958431,-1.0653746602308782,-0.8252498252426238,0.4064378457189934,-0.921248031430384,0.44069176551040096,1.511505234202562,-0.5985303192009087,-0.7456191060219254,1.1349719611789106,-0.15380877974573937,-0.5036012069079953,-0.6770327048547614,-0.038369992898167934,-0.446920654895456,0.9526854422947304,1.5665700762915975,-1.025189188610257,0.6027570128995173,0.10687994739580309,-1.5715705173353274,-0.7564201811425152
1,-0.0623911498599339,-0.2757749523014049,-0.8396177575128504,0.7612803899058459,-1.363765801260614,-0.052090105802011226,-0.6743267347862829,-0.9723935175318257,0.4105059389254344,-0.999678821643467,-0.7204084851431614,0.6324310247991296,-1.9329685091364948,0.3342554825944949,0.19354013295465733,0.6311978500955311,0.6174211909033722,-0.7844504074776412,-1.1143477535206074,1.2680383255079153,0.43358228177114616,-0.8573767143379469,0.13638746034900953,0.05670725781627289,-0.9110222201870462,0.2607183549745687,-0.5744891894993369,0.3628268484771737,-0.004785058286268571,-0.6583432094074603,0.07145503005769203,1.4115656179143992,-0.4841125543475866,0.29850796194548807,-1.5833487407684546,0.25490087328142386,-0.9723840854926525,0.6541575788195249,0.1754670728674017,-0.9775017829351528,0.1544069039178012,-0.5541398640933308,-0.6530494014251327,0.9887520121632949,0.08966949792860453,-1.1615861406976207,1.3409135855029453,-0.02665073312716151,-0.3915292865438624,-1.0617092090502362,-2.1302165712253673,1.6439775509619365,-1.0954542217799503,-0.9525367922646262,-0.500061924596138,1.2545105278051527,0.9428641478333765,-0.49235408489720545,-0.9083911263780378,-0.48932197989455817,0.9393394987252857,-0.33590650306021264,0.4518143264110355,-1.5490543872924638,0.8160195749176403,0.053688992539712266,-0.3502750745978061,-1.612979189592997,-1.726556323692069,-0.745100785969222,-0.42135995669798015,-0.3065011262189965,0.059544552569068175,0.9918971798448959,-0.8131257354531805,-0.5689512081919469,-1.0851107043936192,-0.6088362507038788,0.08784234859397304,0.9908021913680563,0.0018401182090016822,0.27489049618466527,-1.0508353578260514,-1.049426032925944,0.6532979562958453,-0.21535197548595109,-0.48316854575384405,0.2674237533437386,-0.6999656491268441,0.9305287087303896,-0.6901523392694547,0.5205091516850503,-0.22035660997006298,0.7214845377607965,1.403792675006993,0.5435988479377691,-0.5873996153001624,0.2515981497756839,0.08446558366280431,-0.014644917987917486,-0.025749727933757363,-0.42773330507683877,0.3673294770707377,1.3517750625142,-1.028429859891615,-0.12002104631920549,0.45118025927373706,0.836616004078678,-0.19834590649621262,-0.2308037590549363,0.6160301466109207,-0.7974114037886942,1.7970978012351713,-0.6826090897380934,-0.32204911142266096,-1.9463002229804796,0.12415340239176341,0.13258772036402514,1.3485275938508139,0.20233501727117628,-0.6531840262110467,0.05610269191732795,-0.4899969905645969,-0.48469348090741826,0.39231228650030847,-0.4847446003907999,0.03737950861695574,-1.1679143104157672,0.15112568624976438,1.4436523557163081,-0.5200164940121464,0.05029058894912665,-0.5490677660601918,-2.8165009473859235,0.2932072599343977,2.009946081246777,-0.5589156207709499,-0.956848337961313,0.7345731425557164,0.6898246670599903,0.23841892634164244,-1.0975556028016404,0.4720119795751022,0.7930377412856466,0.16058465089386992,-0.4487197813994343,0.18359615843920402,0.5980976876600532,0.2138949918360816,0.513777007688729,-0.8727445125709397,1.315314683836787,-0.20651629682870115,-1.917699397299524,-0.09055262290579232,-1.2485904654099054,-0.1863852905650166,-1.1211736248907784,0.6768128197199681,0.13882412571608055,-0.35635418043248435,-0.32275995090258947,-0.5032661232528156,-0.7494743164315922,0.3552458226746946,0.2371774264672708,-0.5686457561784534,-0.6432334304436724,0.4560750955521705,-0.544518350197812,0.3832513079408385,-0.9638570340181276,1.3267841968721534,-0.40195929796134117,-0.6372555971012858,0.873571542871495,0.07172216463629157,1.6390993571646788,1.8015423093648912,0.23818756931150012,0.26326982271591176,-0.3762153386925888,-0.1346922288911062,-1.332266557857644,0.045716913537213896,0.6844007440711309,0.036290180159430634,0.4277510109455646,-0.1322618876928847,-0.8807581892945376,-0.5476626585945715,-0.6844689688487193,-1.0079067819997611,0.4700985061565259,1.269904616876151,0.018818998612891012,-1.2401373047198299,0.00011142226165964537,1.022696065206227,-0.8646941242174324,1.241138088077185,-0.4459514127168746,-0.05598976577104393,-0.40683965943173955,0.7834828528788526,-0.20775187088520944,1.300417660265374,0.7419517619292426,0.46493712956994854,0.016321588521324426,-0.6637042057885388,-1.6787412252972915,0.5254534024903023,-0.9630616094258293,0.2943507288811089,1.0288045023434313,-0.9663549958893162,0.7862730405508409,-0.02042641774513491,0.930254937819383,0.6574297526039765,0.005059850193252468,-0.5098562203370965,0.560129612468987,-1.0006459580269045,-0.20788128751530682,1.5073899555458903,0.6533269469767164,0.3994657400823655,-0.024320354721690356,-0.3171920176976166,-0.2569829537329636,-0.1497968335962728,-0.10805267126125304,-0.061618628277237956,-0.9260405003528549,-0.2348672400731612,-1.5661580605769214,-0.9175968533013742,-0.7475012382760111,-0.08832400072062781,0.4203618581988573,1.4544348666084197,0.5967736530997636,0.018665580246684715,1.2231796361873468,-0.3672742127753809,0.08326959426308085,0.7579545826447704,-0.9387612644873073,-0.2106889576310764,1.1133317941767584,-1.1401730659770897,-0.3198696379049169,-1.3759918615620257,0.2812503153760263,1.6250803613110754,0.6943201906461652,-1.3356341064250385,0.16247633903473327,-0.047989383156424266,0.47790811145631984,-0.7958192035023547,-0.11156874230176457,-1.5219294552529679,-0.01752921168041014,-0.8813903234588485,0.24103020162191527,-1.4669106659177995,-0.5932088689119628,0.3217323646270041,-1.253746233965287,-1.0184570272071038,2.0695314861264134,-0.5190333942229713,-1.3996580039212565,0.7055192722618784,-0.055507538167490766,-0.10323619734978824,0.10293657735612359,1.7281777650870325,-0.5429613334002878,0.8885492436959843,1.4217642162282436,0.043119631228211226,0.4529026851085374,-1.1366367820385108,0.27893784043631414,0.9454058522636575,0.7253865622796319,0.42202051876294194,-0.8480961731645695,2.118909486433794,0.8386124678483965,-0.3806438281194316,0.8334568861025663,1.4888904940650864,-0.004165120672191919,0.837711167939926,-0.026890239937189524
2,1.7626776061027052,-0.26183963678651534,0.37718593030122594,-0.1681250204660378,1.1679952795818274,0.9600850559818369,0.21744757459229327,-0.8499350240552083,-0.9637731071640885,0.3899909921217045,0.17941158335735563,-0.44871036790545965,0.25396078076468853,1.0961233867931846,0.3981449862066422,1.402280628711445,0.9259558433794479,0.5996776240283763,-0.5080053318467492,0.05994234374225471,-1.6145174996838394,0.827889229903312,0.1483680520138533,0.9389346824717385,1.8010348733157147,-0.9905477482927832,-1.2099122012319472,-0.06755727665301303,-0.8684986237448604,0.0784427900234308,-0.2676873248367601,0.47370351484614476,0.04263809799477543,-0.590248678358738,0.3442509391048673,-0.5092424737264569,0.39826672627025717,0.9872002267871169,1.1105315490573444,1.2820165927931335,0.2515991806917183,-0.46417888842079735,-0.3066406127542576,0.15695684826892892,0.3091617644681837,-1.692184521339586,0.20976703154811285,0.31445744729533714,-0.5102924494807146,0.10892152363060639,0.5279319592549857,0.43996277271429285,-1.0027613713995058,-0.022175783419852504,-0.15427854825696694,-1.0411161444298682,-0.47024993053421954,0.08229985732377124,0.02089625899718948,-2.0087069516745193,-0.5119218774100456,-1.338000850023207,1.199184266240724,-0.2993787657433304,-1.0482043023906902,-0.4234482014354461,0.06942557604588248,-0.27802237388142986,1.312370057598507,-1.5648327153792254,-0.1750928130600111,-1.2204468497334764,0.19704949878200267,0.8347865778496849,0.5107918753013205,-0.9925335400284864,1.0801343038013813,-0.22649414095681933,0.13824455357436793,0.12312370677837808,-1.3847355070964171,-0.7388786955794728,0.3241297516697111,-0.4228421827900553,0.9512879743461681,0.13013100873172748,0.19026515301762353,-0.9147754715982415,0.4424361336933057,0.4880460911237538,1.2141620282606864,0.421849443191248,1.332520315119538,0.36230042559801817,-0.2450780401962331,-0.4495346999958399,1.0407345890453985,-0.2623614586839758,-0.23054883582383232,0.0005757460137633024,-1.4259725061304784,0.0924245851333094,-0.8158304834612999,0.7083277713909796,-0.8994101487297532,-0.4159658696848497,-0.13106115442364355,0.5598878791838376,0.6553861320870177,-0.2162502689501329,-1.5077012910690495,0.7793854384964852,1.34419851390749,0.6051264448429858,0.5896983563958785,0.6534813384502031,0.029183385817771374,-1.0515023112388795,-0.11813700270501576,-0.9289105248814278,-0.1393096087113044,-0.25865027874791624,0.9458190816278625,-0.3810513428529826,0.9752088704966009,-0.19173883701793656,0.9033454846477782,-0.6607982169899831,-0.9076384848916454,0.09707145455119104,0.32267911591032183,-0.7258703236772152,-1.3943917667408603,1.014584128263432,-0.6287341894211995,-0.2752457957430197,0.9531899294736854,-0.23640103197786722,-1.1270069460829182,1.339523446614748,-0.34185062173507896,-0.6760933592275588,0.22424138634340193,-0.18663133203890644,0.05061910906190712,-0.7868364877876954,-1.08573734895212,0.6902938669750859,-0.7411748098598328,1.1668798747650517,-0.015091536133718931,-1.2652866449669606,-0.8761838554579793,0.8998201497180927,-0.4916347550302374,1.4960267198508208,-0.28777027615212536,-0.2877489375447545,-0.8512346136342445,-0.43609400946421056,-0.16557709630949302,0.025247588384875657,-0.28518496705199814,-0.06965500517767043,-0.5527914891071385,-0.475933888278844,-0.30806335715781863,0.07022721353288006,0.2812322545190055,-0.7284242348569695,0.05140914731175549,0.8538494547353779,0.2950571439781899,-0.04311540072934417,0.30282186647819104,0.5085942307885312,0.7166596450101513,-0.03566961518696014,0.6108262426946015,-1.6101227208489657,-0.6421258248314655,-0.07509748107766401,0.5726014038090682,0.5343204724426163,-0.35048702935473813,0.41282166761049827,-0.5957155260675674,0.671134221845215,-0.3810926943206068,0.5050282469495837,0.8270533290443107,1.6456080197894363,-1.179035180302973,-1.5455240659027822,0.6011599870169727,0.059688605223479,-0.6689480711288267,-0.5225317053376812,0.6141599166563106,0.6931339602234443,0.1145287872958881,-0.3437153709240541,1.1782222544621916,0.8482821644350748,0.3433984957214825,-0.10027818941855508,1.9199537978574215,1.138465822879109,-0.3835455191583524,0.6019017022426156,0.5534680259669519,0.22625951766232566,-2.1457184686806436,-0.15359996191140315,-1.2722165873611035,0.9661949642343265,-0.182417620044872,0.9727623311351749,-0.46136818394531787,-0.5539364008413419,-0.3027967437909837,2.2005557876208623,-0.9252185690089774,-1.0512175552968512,0.4040107372445596,-0.033761189573420204,-1.9031830583386622,-0.8718371523394738,0.020138013900524394,1.0655687292295954,-1.1654014263614167,0.1876080765820367,0.3717721995955919,-0.9594226778670584,-0.1019803404610144,-0.7456789142435454,-0.3883787915998175,1.214637740658598,-0.5929955462198572,-0.11374093214102282,-0.5077991244725366,-0.6423346482386957,-0.6282404509550392,-0.5848419008439252,1.157655570881036,1.1364733110502947,0.21587893244196585,1.6470284957388466,-0.8970308985000435,0.03214504584238209,-1.2448071712436577,-0.8558217145520428,-0.4152472950814471,0.5954308934005543,0.41466271264022836,1.3242243534173106,0.5450541794253393,1.339528475686764,-1.034889992010204,0.053895440755299236,0.24734102587159756,0.4389109161435584,-0.5036662729357735,-0.3351310065564909,-0.041422302925573626,-0.20365665457683935,-0.1833161838276015,1.1389375540683198,-0.5751593871030946,-0.10945365592930197,-0.004727896103593043,-1.6274174071869492,1.1085032848890004,0.03624549250749197,-0.0011551555146410162,0.16532792100228358,-0.28114673159916087,0.37226877802691316,-1.444909482631243,-0.4311174954450569,1.2123783578995344,-0.45133911155606093,-0.00013531797124615198,-0.7636733055583427,-2.2920633986926875,1.2438239399085087,1.9669434353723065,0.9057230408903593,0.7430424870998935,0.256049977844058,-0.3187763224108655,-0.4116136038484139,0.06013822434234365,-0.6392283014366682,-0.564780448712345,-0.9016244320243609,-0.6563493739467766,0.4923054425780276,0.24299676530165049,1.5176976157470656
3,0.4558394680077449,-0.03321799984850928,-0.07668239688427125,-1.10216381853701,1.480454269722806,-0.6143573452152082,0.2574904401063904,-0.3162372952849637,0.03151705136088453,0.5886173482930522,0.6628934575144887,-0.3061885055899631,0.6653097935283006,-0.03911492283465917,-0.4233330221097818,-0.5041011887078252,-0.4779855751865796,0.0492754468928651,0.6435831739316469,0.7437623410490654,0.5669345684876462,-1.7730001327832012,0.3280868862094906,0.2153625247725587,-0.8467726170359124,-1.0062302657580848,-0.7057159781451884,-0.4323513113860369,0.4066929814626505,-0.8333935494147233,-0.9125481840928075,0.9100261908050241,-0.4526129980808148,1.4768364405387469,0.5788037192866269,-0.1679356602684111,0.7817725063291315,-1.3287396942681131,-1.3476734159264916,-0.7641375374272809,-0.5435733039799648,-0.7478191983492365,0.3183461393180354,0.7871854177953442,0.9226480639925304,-0.8824737915102704,-0.21260866194337333,0.8614752258581043,1.2369576004349758,0.3162017316311588,0.3490441748081383,1.0191679815131327,-0.36862072528336864,-0.6245641438260828,0.03814162815696579,-0.04750589211848983,0.01156269568671147,0.25165293703709574,-0.6013062758232299,0.6461307367504799,-0.03954698253228677,-0.08244515654900708,-1.3900447734664994,-0.24877640596089728,0.9637495830129479,-1.4127136849647788,1.5530929569009617,-0.5930690317048872,-0.33957923531816087,-0.7827429828833831,-0.13015158846903002,-1.363609997185217,-0.4349157738476064,1.3829265717840453,0.6214933488792023,0.908688418075103,-0.6770812143813507,-0.13260921153531327,0.17843088201820673,-0.37697071859323994,-0.8342578790085194,0.45806596160463675,0.5277488733882197,-0.0187828161040715,-1.9739796664751865,0.050554390544957716,0.3359415930510899,0.03711404779529414,0.358296346872225,-1.2118336281540254,-1.354542397831624,0.17971521407854812,0.45748898681432193,-0.19340838924211962,-0.03889294290516975,-0.05799894433418905,-1.479583373589885,-0.5386980528710458,-0.3303775828893535,-0.12672031955411095,1.1108200616287478,-1.2016518023820835,-0.5432018442490297,0.31273247087319395,-1.9969899884772127,0.07496206694372666,0.17141990262277723,-0.6917953957728317,-0.7609593171677768,-0.5801661193837317,-0.3987676293316502,-1.398943246147469,1.227369101917859,-0.10340054745895663,-1.2923685166523236,1.0689186070203445,0.0831639403780723,-1.087839716452492,0.2755494972001901,0.1706616841443332,0.7950525327185053,0.8736389705088426,-0.8880395048264503,-0.5025796546789763,0.09257940345178882,0.3515741648098569,1.3845876869558298,0.10048511420496,-0.5867630446467346,0.30548091321773296,0.01928477479389298,-1.0575415753476123,-0.22140764694161053,-0.7609293266660896,0.0343862835425468,-0.23110953671760326,0.6534529217234896,1.2693665641395706,1.0085678568177951,-0.010425138489820827,-0.8126495089410347,0.44458519433783966,1.9187909933414358,-0.15431643434376377,0.4343229598581955,-0.6976941800328769,-1.1046493302812854,-0.43596283879211084,0.5714103040004734,-0.6879368439532988,-0.270481626666797,0.1197848498863443,0.11970771346786539,-0.6332144673245573,-0.5137295134376665,-0.00367269782698426,-1.3566265717204855,0.45920627561313554,1.008261005154089,0.5820088363656087,-0.9023416090580101,-0.04312429000016636,0.5181462243184984,-0.2998749028259286,0.7496947647802213,-0.43598826996433376,0.0547873117763361,-1.2319791062601244,0.4634027373378254,0.8145090702303398,-1.8991200758903597,-0.46617795006634516,0.697967434196071,0.13515252295704994,-0.8092931962271586,0.44622144903877714,-0.24046106930756878,0.8996031911101425,0.20935263807993326,-0.7007368403892772,0.464673450665625,0.6644202941671749,0.6879559311101127,0.9428019492178658,0.5844425185750751,-0.6819983932923955,-0.4683637899874426,0.6688299881387297,-0.23885316550081004,0.6571496134889665,-0.12139401240542319,-0.47478230742054983,-0.9242883012439753,0.7816424402314411,-0.8706881723210191,-0.6062244939056444,0.5153833897126594,-0.9765033188936434,-0.4406321386823492,-0.7452257827968928,-0.34666900457853844,0.3107252981277275,0.47443202485282343,-0.5518047012935411,1.5026370915880545,-0.4031989413595191,-2.0132970057954607,-0.34891108449343294,0.447496333450588,-0.39161353258633735,-0.35577945697443436,0.4133011592711966,0.3184779496472817,0.9659849259915604,-1.174305299052636,-0.5584092293483872,0.5274864639783903,0.7229542186874726,0.6316524587166873,-0.7955445590645805,-0.5006171207602854,0.7125508171311266,-0.9744008934841182,-0.12297050639822484,-0.08855375895581823,0.841432711021789,-0.2733954950760335,0.8167456064798819,-0.2775002802025223,1.5737631405309314,0.35501567705317233,-0.012862444935680175,0.1815483683171648,0.947777291954241,0.6770527627264316,-0.40771845677949226,-0.4986783657918875,0.3850976530491951,0.17099707705468187,0.03144608604467175,-0.670306544458093,0.051358897671413634,0.3112489364568263,0.09709833711733917,0.3527632461250515,-0.610116079696506,1.3874478564520791,0.6669525249124236,0.28341098959211697,0.11267322060794534,0.05124364907031286,0.24603956846979086,-1.2072008958158942,-0.3394652483816944,-0.7710830997176683,-1.78955197567667,-0.24444968836900222,-0.10696827517720178,-1.1393455048989638,0.2878829722133899,0.3280526694828676,0.6811376776403973,1.3839968568264442,-1.0707684166765712,-0.11019318242243853,-1.0558057916968198,-0.4789560367332949,-0.2703337865038904,0.7879999505024673,-0.5407633225651607,0.5379739713935541,-0.3343452496942289,-0.20773656637012006,0.1615873902301306,-0.19852245926949258,-0.7765545586077155,-1.9599026934023156,0.3641901640829162,0.8358498551696838,1.0201122470406105,0.37772226592953856,-0.13169895164839074,0.2817517878391758,1.8098840064285275,-1.1154944841766563,0.08229117355620379,0.7581698338206985,-0.2511145607983711,-0.3261436601208776,0.8011118708823318,-0.6757028215136177,0.28339988888865225,1.0932190232339114,-0.33895257715934896,0.18685584211348405,-0.33847600713077575,-0.1282664469718027,0.2001307113294044,0.032231027556253046,-0.007240672549104742
4,-0.4560393668736305,0.635704561846494,0.24304813595581673,-0.7856516304548357,-0.8870012700099067,-0.3170347547373115,-0.02811049817407729,-1.382993845761444,-0.4398801118702342,0.3837712742521872,-1.0033709673134175,1.4198710487170472,1.883022161840846,0.32236850477025114,0.2480831780842954,-0.12367467122512978,0.62277275503745,-0.6404556968159786,-1.240304881512229,-1.7516218275716513,0.7355072163523709,-0.45118425435223,0.6867179753221434,-1.1329372477935258,0.7561599491308069,1.855838257839675,-0.8005810738212843,0.03893867249743338,2.418156224765244,0.3711747131891367,-0.7412261404257121,0.00015041027023189683,-0.12312099036995926,1.4194582915610983,-0.3246289041315505,-0.11546201213807551,-0.5570619767887017,-1.2455853692199184,-0.20725736679201306,-0.3055480681446145,-0.030215979185226696,-0.789016139629397,-0.8317317329471116,-0.4714950530600756,-0.7255455621736496,-0.7302569137804853,0.10154841951007952,0.11371969853767067,-0.09841733258891537,-0.45151483184113145,0.5733969096794739,0.07400510203109557,-0.5176778468671698,0.695415107242091,-0.26269094412371796,-0.20301740664380394,-0.15032686206428672,0.7760315109919037,0.6304729890114723,-0.17256482388630284,-1.8742162480677682,0.04111010750839629,1.3197457894212778,1.587524167876961,0.47010938548588405,0.7098493097760095,-0.3104883115728074,0.8418768503659831,0.4362669940891811,-0.3048862724865719,-1.022428352096716,0.4014797241968932,0.690314718223116,0.29447488497541763,-1.4931239418077928,0.23595169549170827,0.4495288128385682,0.8199764288698175,0.6460072317408065,-0.21068583220950005,0.5763146144139415,-1.3096527054364584,-0.14560431858757536,-0.3204801278148241,0.5463635138577176,-0.538283082226365,-0.005158733366736613,-0.17273781309487152,-0.5659845415507556,-0.6341035619378812,0.7197154232358158,0.3661958739290828,0.23889242654934936,-1.4971506242597328,1.1950295126605903,-0.5988172609642332,-0.711675773342062,0.4855956496193785,-0.4819553085574203,-0.6638107627625845,0.4417037609355259,-0.8834246855842885,0.20012745098514673,0.8380313684735141,-0.17014013406747766,0.3854382005808962,-0.6805850229007288,1.1748230114090992,-0.6239423620099993,0.6859921921104104,1.1446447490759009,-0.1739432769278009,-2.006000231498578,0.3216611106287385,0.7476068987376987,1.3990760281793575,-0.4897181656490054,-0.6419892210248788,1.0406197175351026,0.09679348323727761,1.1029903113977466,-0.4013242380742989,1.3604743698852673,-0.8363120765199721,-1.2806995704582393,0.9249281925526888,-0.7331744880674501,0.6907786547969578,-0.33785568099382807,1.142661785470442,-0.7282551741491383,-0.5300193253740197,0.995127346933397,-0.1457748620289563,0.7835827936854921,0.4677647873626944,-0.17336732324262635,-0.14162869717847684,0.30981010092135736,1.25257958051419,1.2785467922034297,0.7200405652903582,0.297668527643072,0.647748176632439,-0.5029263097254698,0.23639862431878536,0.0673952018775418,0.004948537343442784,0.31558406068888256,0.49255635035510886,-1.2861582760933201,0.1755487523497056,-0.3118494589343396,-0.02920751131705706,-0.20483316947047325,-0.15364540345281008,0.3964271289926079,-0.5668285683073059,1.0971608333366902,-0.910522084994838,-0.6800271647839843,1.3954431262025009,0.7093961330720556,-0.5879756274529852,-0.6846676941752721,-0.39251526817418353,1.2583686851092792,-0.8519166557343097,0.7863227155189542,-1.5227666434047191,-0.025648941146128236,0.36854054772241573,-0.4530340924459175,-0.5025227138953903,1.0623790115445861,-0.4217999209167596,-0.3255053785502739,0.34315560530373823,0.17245265951896294,0.6230085807652795,-0.006869904887623842,-0.7859728471714266,0.43403195029140246,0.035439364979167345,0.18504731485244133,-0.06740619010287038,0.6151762639238161,0.27513160713863705,0.22846755045083897,0.4971266615671911,-1.5131982564167712,0.1913736757607985,0.09365932102865861,1.523407445960836,-1.083428117886615,-0.49143546950523825,1.0107274445000558,0.5521877521087081,-0.45686862390009375,1.0333887026514106,1.1269821196349743,-0.6040736713927549,0.8756055582407711,-1.4528367972332943,0.3761241839390677,-0.12291903723414817,-0.7172915497341138,-0.40865778693665866,-0.31497097946489977,0.6256327122344906,-0.8642504473272079,-1.2930031239999529,0.3944315080484255,0.6487411841405335,-0.2952666732488324,-0.024747910332679153,-0.8898541640827897,-0.8358223929638995,-0.19234065052811564,-0.0768426491365006,1.20667261715855,1.2024294602504895,1.1643304313048775,0.7265027890646302,-0.033258032928289286,0.16126382875532425,-2.2927894678530025,-0.08693065617603521,-0.7714271154904849,1.2481407451760838,0.49308694330734565,-0.3309881011119062,1.5905238609594536,1.1005667384270517,-0.32855345323420077,-0.06494502186920871,-1.0346542715144318,0.23743780699001427,1.1291628537932197,-0.7251003145593927,-1.9189564388338518,0.7099872814677519,-0.0612778191370969,-1.5292444064871296,0.28996536848993576,-0.11948469289327612,-0.1545406936736226,-0.7432440073201599,0.6441807457501165,-1.3795784898201833,-0.16819383962574175,-0.3596232998943184,-0.5946247085106481,2.1028567864466923,-0.1293454513070125,-0.28683438927698496,0.5997991112509055,-1.573048045070809,1.6993526901963218,0.3187283162926675,0.17700466545851015,-0.2500441018549147,-0.09911586749889936,0.8009382165691931,-0.7893939575537137,0.943179497618653,0.13122855232578523,-0.15365470295106642,-0.06736408455899649,0.263787464970015,-0.06921739316651924,-0.49882714191679883,1.4253022560868305,-1.5233088365234102,-0.7904365722384591,-0.1273214124834452,-0.9337927583435223,-1.0944993309224538,-1.1741976207169516,-0.47826771368054244,1.0719332742929406,-0.9950657528523048,0.29451545035009413,0.5718056595873169,-1.208634976079203,-1.1761533543576885,0.12277356207120373,0.23894700256988466,-0.8895770410206244,-0.6151551676597833,0.3637751854358913,0.7592616359111993,-0.1642789323087936,-1.051214617480578,-0.728602407892889,-1.879642983174552,-0.03157643900642438,0.037980036367712446,0.6533814306883946,0.1546273020090701
5,1.4751015961753928,0.4125828099930913,0.23545090678997369,-0.46911860695480356,1.268697522836499,0.24982464262787807,-0.3774704335711678,0.7177217043459627,0.15645040968180338,-0.24988545460736475,-0.9622274644052718,1.00099707348441,-1.8172826619074793,-1.2734138525436873,0.7170510232071228,-0.20288651229785035,-0.5797327730258895,-0.16542471349912646,-0.532419516416757,0.10292377302501902,-0.5313757200040027,-0.46296552225079035,0.6398845020994527,0.5611492007792401,1.3320298260697416,-0.20097577733775018,0.31084406505019013,1.0466429931827304,-0.8114190631541637,1.1816536524587646,-0.010773076163364136,1.8514201295418322,-0.06016679616579772,0.6243432378971816,0.9592448376446807,-0.11668223318549945,-0.03792755888033132,-0.9194069531800015,-1.374341139253216,0.9697708633685679,-0.9640499031129178,-1.1421742790964104,-0.17263246454373993,-0.8035410440872571,0.7410894339179988,-0.6819059875360789,1.0449353811906659,-0.41240828923703915,0.6785813188441415,-1.6058458474419532,0.2475360705747669,0.42998761104822897,0.4957206524334858,-0.2417648142428578,0.18143877784670945,0.4173003198747662,-0.29996740822420265,-1.2201825139142681,-0.49157602585161897,-0.9819276247251566,0.7148416682237624,-0.23661223197028083,0.6634823312228773,0.1171895934170701,-0.9570118730050751,0.6298484233984827,0.0373913334621572,-0.09582877339994672,-0.00820941837403037,-1.2998653666442266,-0.3192669611227147,0.3304453022190244,0.14393000489975993,-2.690186577874341,-1.500613454973498,-0.4587353828521511,1.3105195967842753,-0.22049130815347207,0.5093706235266495,-1.1172831339589329,-0.4234485287117912,-0.7483206207330354,-0.7689891293242079,1.0928641483553077,-0.23987866797868224,-0.14780747605012964,0.17623885016866153,0.5582059090749655,-0.5462858319225546,1.5907008787207106,-1.155806541467278,-0.4123848545619858,0.11518035451987967,-0.49042532354525215,0.26694683057969854,-0.19170280286052296,0.316749248763356,-0.9678107003650668,-0.6176495015511676,0.21420891731425543,0.2921393161849376,1.4666636765387968,0.4467995160734865,0.6734980458574007,-1.628049902972829,2.589792445946607,-1.629190407390604,1.2236491648432528,0.01042428941894023,0.3159873060932048,-0.5871168973598956,0.01451764053666393,-0.2689925599910056,1.921557198156783,0.02292017549921942,-0.7494587758485863,-0.627870968693439,-0.8004504355108717,-0.24083903180969546,0.7043096024242907,0.6032435855190985,0.4475716447153921,-0.14690796418171526,0.5003745931928385,0.6938965121284191,0.9939271633537212,-0.7829957773014724,0.351926665050197,0.8611768958612421,-0.1691548860268595,1.092894657622423,-0.14446546092340257,0.10304761281958381,-1.10569001372526,-0.8975777066471589,0.9159809608883659,-0.22386270499192584,0.733072936330271,-1.6334497088711628,-1.2478449733015677,0.7674832286425056,0.7638371690099472,0.47202724919942385,-0.1339575456142354,-1.3106361148058687,0.6516316583380867,-0.4279335745095548,0.27960742648600095,-1.384180934242233,1.1386186213003726,0.7389348343930536,-0.12474098931014753,-0.07806123239914889,1.0905862787100475,-1.6228367308337874,0.6950986470055907,-0.09154184673127229,-0.9804911526549698,0.6442601952514093,-0.34367430118256165,-0.8886778821858174,-1.139408359297546,0.6538193460365421,-0.40998730127789196,0.052701528548031326,-0.15632394038885336,-0.1263617697826576,-0.6080757026732263,-0.43036925962257766,1.9658338177919856,-1.0245799325267937,-0.33186641090222707,-0.3496937244186428,-0.5138258050740173,-0.7540673255121727,-1.4440638994935504,1.9534181054813524,-1.7063051512396532,0.35535240920506694,0.9480303473279819,-0.04825255668174798,-0.5014067031102591,-0.12838792347505812,-0.06615227031099753,-0.2980340916483753,0.36660506269153786,0.2018493886216729,0.2128379833615944,-1.365199081716012,-0.46122942892726315,-0.6567954073913986,0.0706377985216975,1.0274697998555704,0.7223394531572854,0.8598163181537782,2.197871947419463,-1.0634683463506025,-1.5512768918025732,0.6006623170042776,0.33090380318050394,-1.5580570734175672,-0.05979979176030581,-1.1308446744566023,-0.502281852470174,0.6852917548091229,0.4386373874990965,-0.5490875091671477,-0.14163515341183544,1.80216759962529,0.684830117312818,-0.7858664715340339,-0.6601499158460504,-0.38010535986319044,-1.2210893984121423,0.7634690806037503,0.5879431563265235,-0.9948888665452033,0.5766426534019299,0.491762459138133,-0.08781391443957029,-0.025399925466196543,0.42191285218189384,-0.636276325603455,-0.22110431985370452,0.04159445956780229,-1.5925227590351492,-0.7388964111094534,-0.07197818549323176,0.5758740541589268,0.4781348632869989,-0.6920277511025094,0.9332205980369627,0.5148716868660689,-0.9523140695850643,0.8223749712306215,-0.28808657673392446,0.4328169026405412,-0.1337503488334959,-1.7107118061124675,-0.1820910022867643,-0.8732857409620484,0.006548635189989715,0.10674619751941221,0.15008650602379328,0.7938705897262429,0.28431470965847844,-0.44317909330183536,-0.8835667195653959,0.257224094800354,0.8291241283750214,-0.2975736778472302,0.5788500582594234,0.11655443985933692,-0.11379024520634247,0.9274819410717466,0.1358304615677845,0.79800530470755,-0.5502073465081125,-0.6233418939444407,-0.3152631108652858,0.8305562038930108,1.4731565966348656,-1.5770492969118226,1.224692802520763,0.5330858530769985,-0.25378712146082233,-0.22972816919170538,0.4006354918195858,-0.7602758778043514,0.361372664016563,-0.09613196571522996,0.7754496102296048,0.04776075306200503,0.4375710453987557,-0.02765585918800602,-0.2708720779073331,0.5405260841887198,-1.7520278386097652,-1.645198241572975,0.6750236690280402,1.2841998027104518,2.023138117095702,-1.4064750876940608,1.207630017684877,-0.26544889366516694,0.2912344899250855,1.2424669472045609,-0.563169681545693,0.03662222090442776,0.15618962978009576,0.3447230023617388,0.8563580773825376,-1.9115390483212216,2.1627837125240545,-0.3030656936466677,-2.0511947537311483,-0.10933442806820391,-0.5445595576872381,-0.49350896678023876,-0.7911251644877917
6,0.15683472457397002,-0.62812952480419,-0.4104875153031747,1.2543666407635925,0.26623345501191337,0.5022281180141862,-0.5838148357752867,0.2545961795491259,-0.7334533890417703,0.8311462672933595,1.152716550552985,-0.3854115075790951,0.3284395169416479,0.14000411027666154,-0.6645147801851635,-0.24247518590981612,-0.33000949930372786,1.3066829478252666,0.06957497584341121,0.36621439026144603,0.18576739995007263,0.1673062264398188,-0.44040891912171737,0.1950561170906386,-0.3847129580922812,2.352581286403487,1.5221641617135564,-0.7435794937829471,-0.8244852118013095,-0.5329902803887603,0.7581930507260481,-0.8660053547665183,0.8831092074305976,1.494032375789676,0.39952179211564703,-0.05034694077894221,-0.9556764975963211,-0.2427719430944935,-0.3313728573091516,-0.06838789454271725,-0.8031038991262429,0.6822997737280341,-0.17843871240437273,-0.7672708918157177,-1.0595942075664069,-0.7913567705262122,0.0452546928739023,0.144284343611772,-0.5601689473301887,0.7285811382836518,-1.295922950886038,-0.45219248788713956,0.4251911749546212,-0.3311113628345228,-0.6401416624859574,0.3821496951206789,-2.6855885316763404,0.21968835096011133,-0.35103898619436175,1.254051046513691,0.4935022199106148,0.3930108275997584,0.029245435312007403,0.6610064500338284,0.43171002773033956,-1.3026462233811822,-1.7435284853515085,-0.28670188421451664,1.4481673753989213,-1.1014960253721997,-0.4541948854628276,0.04972781362715856,-1.4102650773386607,-0.2729006085714876,-0.5604199386101134,-1.2364102816907456,0.8520887580875458,0.3244115294124618,-0.3850227598042421,1.321294586359227,-0.7721144886985524,0.8615506472441301,-0.36043875598699654,1.250206737552518,-0.014458806551415982,-0.3596669588442312,0.010972526374070996,-0.2159553247147882,0.3238973084647011,-0.38415708683876754,0.07745397383842506,0.7118730678216854,-0.21334727881527904,-0.5707148913553372,-0.20958390584533954,-0.3470108284468606,1.168044000224178,-0.7623851720548378,-0.2879183381669555,-0.13940586941710162,0.9307313437058582,0.6835715958784494,0.36501794507982915,0.24817391656743598,1.1765186006623711,-0.0008975131739729233,-1.169170937911344,-0.11043788877579892,-0.6974278389875533,0.11634455921926767,0.09565690328595554,0.03937141555745717,-1.5638519350989946,-0.7480098624502725,0.4744787593152639,-1.3292583727188734,-0.03910534627712233,-0.27773898797889957,0.06328847347545,1.3486937410952247,-0.9316584081324468,0.07897312369447992,0.042028722280350816,-0.013456112326079751,-0.11393401047257137,0.3210950459108877,-0.08022170548057196,0.979830563476256,0.22559211493609915,0.6613464802385486,-1.0437118467848603,1.4424593130279415,0.24991695015343798,0.8466983966595234,-0.05712529969466329,1.1357556928396535,-1.2208927674260184,-0.05522575275974828,0.9771600422587943,-0.41461088885214126,0.34682965451640685,0.49040135215913067,-1.5408973734631994,-0.14895086738798835,-0.8300481591514349,-1.029646353239547,0.8612160008857959,0.523199382304247,-2.918550793185521,-0.09664344253983695,0.11594379299673767,-0.10042981961067447,-0.23646990005953003,-0.14284150469105442,-0.16180151256427824,-2.005846026630162,0.3874098629950768,0.22561956369184136,0.2820334907579877,-0.428195897519514,1.8069003680139462,0.9159179244166482,-1.9489703774374034,-1.1182972636444286,0.4757358872397747,0.17930101124918577,1.5312974452146375,0.7155155446791682,0.45965231543286034,-0.16999362740965793,-0.9601501543456264,-1.0590712671542741,0.8413709372776527,0.48566900243670386,0.3600403648574915,-1.3073207651484755,0.8052606989356123,-0.6739552705927138,-0.6335851038970813,-1.2176170166039069,0.9336853361177312,-1.1062652140500486,-0.16925372961078206,1.0697497875553235,-0.12745443802298345,0.2913719048967396,0.974906260014802,-1.8056999253160404,-0.051155733412776835,-0.3592798601053774,0.18004593069033112,-1.3478697970284073,-0.16903550608707837,2.1856897492875396,0.8240664583620029,-0.36457402972991415,-0.22792099948631342,-1.4018516353613604,-0.4675491937775139,-0.25433538264001265,2.159129288312589,0.8545428982692457,1.156050363853273,-1.6441960544800067,-0.9722536868817723,-0.5422760989596491,-1.6823689110652549,-0.9906090727444522,-1.517193672469702,-0.39028530009341267,-0.2903555071612243,0.7699862257997683,1.312819013432313,-0.48502815970181035,0.6768169786579658,-0.9148946826051283,1.7188815764312884,-0.12187222147524233,1.9742895582809246,-0.7720287320361665,-0.8987806431110102,-1.4229748559485171,-1.0428954651392432,0.06879871686308786,-0.704836073303586,-1.0388963431260496,0.7112778807445356,-0.16736014404663768,1.135235737874124,-0.9008624895345113,0.35918128337571964,1.420266191450122,-0.667943144765351,-0.1291388774429462,0.9617687514984745,0.7928651450910532,0.9724293273891512,-0.3751941756658661,0.5985458299847722,-0.7243639662278174,0.5382761307441423,-1.3708611969294981,-0.8916718394583835,0.509388475233749,0.923821189347227,0.8215017404321765,0.7920742166326794,0.3846109502006282,-0.29069129231268975,0.8788696663914025,0.04709573559935942,-1.2494804234602817,-0.43082337356306616,0.9086039717718437,-0.6567078735669682,-1.151535343620181,0.03016922411282259,-0.2091643483841319,-0.4417548875953766,-0.9131079761027578,0.03469933931496902,-1.525881276614782,0.2585465197094576,0.5977747084064546,0.3121339642368448,0.25888351541449045,1.4355539007481013,-1.6047378671915387,-0.9309362081428155,-0.8777121019109565,0.1633440728519127,0.8212402992830246,-0.2417138824485265,1.1553426185090967,-0.6176507781988306,-0.26350904448432994,-0.7160742188499615,0.13727052270166018,0.8913958217010047,0.17583594763893065,0.3354679391874962,-1.2537572137437152,1.1488547110980192,-0.16420232325142683,-0.06943195902934285,1.1267895958577745,0.7182236595783278,0.428519928009856,-0.12384793853305617,0.24984123975271744,0.04159677699072975,-0.1432179489979651,1.3560151575227481,-0.14181533432971935,-0.1922779076879708,0.414281350760793,-0.6597436846401665,-0.868091635941662,-3.0211377227975915,-1.27054366584366
7,-0.3123315981535998,-0.5792046912424798,-0.6433704301292028,0.718294826807112,-1.2576082916973836,-0.7661754543864351,-0.8334220099098342,1.217583098907761,-0.11207243293294966,0.9535662553316451,-0.7754098406115628,-1.1902263003417048,1.1984526555635404,-0.9317779838602516,-0.2632872943420374,-0.2075873784016881,0.08835651360116956,-0.1966770583722307,1.1511596516893443,-0.6687656080486885,0.7529149612786209,-0.3351607578979785,-0.4994670066257873,-0.9109003417125345,0.36021907968756756,0.6969971147618735,0.38048621825186796,0.9573078161421845,0.28393292015842736,-0.05903322971229599,-0.13578182312053283,-0.05412795423836521,-1.454436040562572,-0.7643478079582838,-2.2166270265184154,-0.14842739588578596,0.7654308366283322,-0.18989920157312948,1.6993968022159405,0.27841230451598475,-0.023840184518695916,-0.5944170468544575,1.4054657068407062,0.31531900979337707,-1.893044326586174,-0.5783238788567534,-1.567115341665327,1.5795100669614812,-0.014423777054833302,-0.5512377180089387,0.6473287935286004,0.7923672006517197,-0.5804381959502204,-0.6790421435061298,0.8540411895414524,0.29670598227440864,0.40265473965659365,-0.033976401335243746,0.9025922310823451,0.19248281892184133,-1.075181438521107,0.5023804520769135,0.21904811897453286,1.319420071075598,-0.3724984185639791,-0.9587832346244862,-0.31860873078066093,0.5510379510143524,0.6151165941836567,-1.2628143031357786,0.7998281440092208,-0.2413387333444688,0.4142752778717034,-0.44348504896350466,-1.0767344858073968,-0.7487380718949663,-0.8275910109206445,1.0031043968332096,-1.067601281681539,0.26150812907963983,-1.026569565022378,-0.9118566985370923,-0.4027501194716382,-0.2957144086731756,-1.455914620203835,1.2865039615920573,0.15771810246320747,0.037780484522807495,0.2359770217877793,-0.058073399216047636,0.1867994534138088,-1.0626531361976048,0.806763520112209,0.12231341537059384,0.4504640894689066,1.0410731834989042,-0.5971740929921502,-0.44590742768078945,-1.0693788483780737,0.003917237396113434,-0.795791232960013,-1.0959115877698362,0.7820410796046723,-0.25914397800654765,-0.6965641012507934,0.3569785606779114,-0.25064086586002077,-0.2545052925095154,0.9245805660702777,0.8650895031213569,0.5686659404079761,0.7064150096151431,0.23976868981070829,-0.4721509937733587,-0.6740704320453454,-1.1047394175789031,-0.18603442772060122,0.9652949294090079,-0.3409891632934647,0.8712858482034092,-0.030326316269268364,-0.1896100779492073,-0.157392186478474,-0.7214593875484719,-0.978723192680181,0.09820778012512932,2.124447937654651,-0.3010218008009584,0.1815228779248598,-0.3555951432475639,-0.9204427473217859,1.0486855418274539,-1.0601202723825862,0.4976810906905347,0.3747293737325399,0.0007218462798425399,0.5965629386431488,1.0885155683697396,1.126635009591306,-1.5555693130803145,-0.6588905346863752,0.043478828544616904,0.15361115301467262,-0.3158588606367761,-0.004004353947641438,0.10142335650875324,-0.5569326674247836,-0.3684403537983641,-1.2513039841499838,-0.6416775375712679,0.5835327308740271,1.2571589866861403,0.4763328973992862,0.7214899102289087,1.1900099075215202,-0.00974543234010707,-0.3980366876765859,0.3482941964420612,0.48516457107052446,0.19774896907155798,0.2076898291004608,-1.250866834358524,-1.126436373637388,0.7722429242278384,0.3766911580702908,-0.6103020258939964,0.7805358130039927,1.8895327389114287,0.7178522745378303,0.31192659405606415,0.10776551827250057,0.785971794886953,-0.47699201414523157,-1.2342102219243358,-0.7537189180984672,-0.5447958726654317,0.26088868995848963,-0.08427183639931805,0.7817984377565087,-0.012569577017577806,-0.06536127137692868,-0.23033078004328353,-1.9823661945937816,-0.9119276301729315,-0.1561519103558935,-1.392083400676354,0.15522741065634035,-0.8078525464642123,0.6001881795606328,-0.39516334034560385,0.09714061103356353,-0.24667888664958604,-0.7869502252158662,-0.1592917522889391,-0.22328631683006434,-0.28510906500861444,-0.6205549850622607,-0.817606980097178,0.08006645062221249,0.15548826230352628,-0.6394612254267884,-0.6521238010577584,0.5610163011657293,-0.8926944112815904,-0.30532551650487716,-0.9278237720487422,0.9689730523346691,-0.7237716650668897,0.8350677771226632,-1.446472897384244,0.9160093676890442,0.6211711141434306,-1.2477293791419517,0.3557155429938456,0.6273613774784973,-0.7283036460825796,0.16344641986919267,0.9967079860772825,-0.615364278879457,-0.4437870657065429,0.3027045236048922,0.9564911525887707,0.47328883868738075,-1.0220127196597342,-0.20572921860632293,-1.0971916095392489,0.7751256446145093,-1.146489011167374,0.1364064593728121,0.8543471930635892,-0.811625488933264,0.247532264654891,-0.13852791762753527,-1.6622983439310621,1.9648535961650646,1.2439175075692888,-0.3596330089332433,0.5085522972304194,-1.1931522507352288,-0.2252093942245728,2.0990575651521293,0.5588984963768083,-0.1818208454389741,0.24162282537200475,-1.7842720964223684,0.8106988849645163,0.6602561987542437,-0.45382454756663154,-0.27709888846740593,-2.217652361090728,-0.03975185293873307,1.1261308359371358,-1.026142946880056,-0.650031719114333,-0.8910632559561948,0.1381874981403086,0.013717478076331217,0.10608443445034794,0.4170007898836492,-0.8477646348803909,0.059350783910245154,0.9128935505706681,0.7799711773531386,0.10620278993470311,0.17650294942135042,-1.1457756415774543,0.5688982203555529,-0.2194774256225167,-0.02944726508705426,0.36621025054038026,1.4641123143921113,1.1552410162866156,-0.4618354957459762,-0.5041953545435286,0.2139632847273879,-0.14741247732760332,-0.479013568931348,0.5495983486335342,-0.16161123491445176,0.311547142020997,-1.6625974117076332,-0.37339240783081606,-1.1464949946939276,-0.8494842628188775,0.08850903294336926,-0.6887243401082452,-0.39358940724367486,-1.217819141305074,1.7983950136125484,-0.7775311482105243,-0.42445066018684285,-1.4418244667472113,0.3074485172233936,1.1124009026447208,0.7090071174952539,1.3830784297260343,1.6184595699923263,-0.3397546304356287,-0.5241357775654539,-0.24415162394777146
8,0.5112623020328679,-0.16968354761586388,-0.8443669349119667,0.06895964221975624,0.5642053485788793,0.5708959738500989,-0.2976358472513662,-1.1172336290180196,1.3837917528012855,1.9642892128160114,-1.2515051230303371,-0.4192110538001094,-0.8712039057840637,-0.9582111452318496,0.7752053755586771,1.7670276469934243,-0.20135955097432018,-0.010124248333451137,-0.7146301698669499,-0.23615147769268224,-0.23992858845123172,-0.05235994465012937,-0.24511769969887015,-0.23407870407124862,-0.5065182296583982,0.8729073080958837,1.2637967664052627,0.7056902556243331,0.29117108973439715,0.3433548096241378,-0.2390536790966823,-1.0662934292310362,-0.22982388393527214,-0.9681531531168932,0.8128975028015307,-0.550396030548567,-0.33650380730722573,-0.13948411408338857,0.3154375356139161,-0.0863325900130518,-0.7214358110257661,-0.3178611943111032,0.12410797776362896,0.9613980202989667,-1.5985057369019227,-1.371220260126506,0.8693684417830652,-0.5553073526596716,1.7112036079928854,-0.11985252079910133,-0.5739886007993237,-0.78576228852882,-1.422955735828948,0.3921913593772188,-0.8916452037507806,0.0226245086951456,1.2212120439056617,0.0940943675275008,-0.7853842070115284,-1.8902950036513653,0.03959350798381093,-0.3307668326247455,-0.25215732334675905,-1.0090561834703464,0.9527897588350104,1.4135855897842404,-1.5672500843119865,-0.7694603656280974,0.0650710528643607,0.5969376912997256,0.5655317160856506,0.7934424651635236,-0.007308948391186969,-1.447901094552744,-1.239063454827103,0.2667544608269937,0.3086511413711338,1.990730890491555,1.9232013665252243,-0.6425343658580311,0.582051573775912,0.5694434050024156,1.3227210627834665,0.586870426112506,-0.8443431099559287,-0.21407653492898435,0.39256661348438743,0.7679788968146525,1.3736915719972576,-1.6335205857981974,-0.9959173027379113,-0.534007873702405,-0.6188591997482245,-0.42337950444665395,1.5272130917602293,0.5776492746215972,0.9132501324231147,-1.7125429200347662,-0.43536535513047653,0.4098292800500126,0.2299514748861284,0.1574490562880158,-1.2079840759165485,-0.8073041030867573,-0.2146916080636907,-0.19127683440040025,0.2199103606982146,0.030811381710166095,0.03955659168522704,0.02541511640015181,1.1304705080147943,-0.5054979974830436,1.2205098164517574,1.2885539415383414,-1.4724334743832013,0.8773408809008895,0.1673882699657224,0.9483379079639767,0.47965848067867045,-0.3083315729489011,0.08469065974161732,0.09938922782660659,0.10933003758100503,0.05849334853608802,-1.0825030967227829,-0.433436016163511,-0.9258939459755617,-0.9876396257665107,-0.3569985356926607,0.5792140447998247,0.2976734976743604,-0.4532972476786583,-1.4716203495177338,0.3152151815671811,-1.2172373681752615,-0.14478230386890878,2.1039781477866697,-0.931277316639023,-0.06384331166757849,-0.4911804177413759,0.560317635089153,-0.9362354668405172,1.663281889072266,-0.3871280927509722,-0.35739439582204885,0.2767626823512532,0.11310068440494049,1.732229732277366,0.1385529271592538,0.13439000801412113,-2.002827098913231,-0.10122178409565834,0.5298365917980599,0.8866801698266171,-0.8508589345426073,0.7033876911395693,-0.6989804242553856,0.5679595059178457,1.0976784834851139,0.978959386710903,-0.9924862451493501,-0.7930372635300315,-0.27502524858728017,0.8000678535590424,-1.2060228262479518,0.20265246534748377,-0.9830212802653502,-0.24419504446368134,-0.145556970223459,1.5060980178264616,-1.1162564138244948,-0.011163029168729192,-0.8070482941751658,-0.7305986735442465,0.5373491709466578,0.027998570142883646,-0.4685433811294978,0.191588818498078,-1.31180495676272,-0.2607093498771295,-0.7541103663535499,0.37347383982466,-0.21236339901958542,-0.7237765445068726,0.6697080927283959,0.44351365177526614,1.270122479038642,-0.6966459854835833,0.6472199095900779,0.4371599683581607,-0.384968293114351,0.45666480616424077,-0.8580669819623961,1.0000198659980146,0.005040214025212893,-0.5531060207913457,1.3866405449048007,1.2707563695909774,-0.06948381475772251,-0.20132553443689274,-1.080962170636069,-0.37971238976254923,0.3896272824442543,-0.6940320049952275,-0.21503784024582498,0.37449408792923494,-1.187336962957669,-1.0261873614419341,0.2302503117220993,-1.2247251340727248,0.15193804232362204,-0.575032239328075,-0.21407861418608998,-0.8128179053452703,-0.6397146752076095,-0.2900121505827656,0.3185157727943432,-0.2310693845495227,0.29792572162786474,0.35389270638549736,0.7813749564292761,-0.6031816380998714,-1.0287769068201378,1.8284755668541606,1.2506087041648455,1.2456450183990115,0.05272427705755182,0.2314044334913529,-0.22195412076069346,-0.9481353371707829,-2.2819687695254904,-0.3394413186202766,0.2686163982927444,-0.6138322632369956,0.06922219096377329,-0.17850060297258266,-0.04206336344730521,0.001172311653898847,0.7091381749649764,-0.37607542445302644,-0.060461358751682445,-1.5602261559041954,-0.28658207110545897,0.5369321236691247,-0.5814306145775123,-0.553016713576246,0.6758375735493655,-0.8273192733710095,0.33735208893428026,0.27239942285300633,-0.24817284411052512,-0.7960589393041753,-0.3868272255295609,0.7247224672511832,-0.6673365287313078,0.46177263372136623,0.30048380733036373,-0.1553206148331742,-2.2058454054931937,0.7208771271713912,0.6987807116554693,-0.2141686643529191,-0.19162087880610912,1.0793197308472757,0.4131406347551283,0.37069381201230367,-0.5602348197132871,0.5472318375201933,0.8188847438053056,0.21256927908853893,-0.32116600325602473,0.3607403901797013,0.07437912576226614,0.4050139984678742,0.4427343065513519,-1.1756662710074663,-0.2696259712857892,-0.49766838498942273,-0.577435040433142,-0.14641936514756007,-1.4931907411565244,-1.7860747747508654,-0.5167680728685181,-1.8908985195048715,-0.7874959926647526,0.8186922296078817,0.4263464207684178,1.4452696594420733,-0.4374879358400807,-0.9551719624256364,-0.3756934081402371,0.40222293210527144,0.5574876679881301,-0.6764014464442897,0.14613932524006712,-0.10773202149029182,0.7165425567112492,-0.43389495178790555,0.5203799572709517,-0.7039493591896108
9,1.1144851864111818,-1.4874113683036425,-0.9291093362102131,0.5847403848536529,0.6567205460270403,-0.14207114935718657,-1.0277100552185363,-0.7445939400527329,-1.0396472122624993,-0.2219396052523213,0.4340444047943824,0.9271682569667473,-1.3759588072047297,0.16561057843033544,-0.16414300150249905,0.5836106007994879,-0.16187453591278805,0.38605414182057857,-1.039731380545306,0.6403791136549862,-0.13417501844745477,1.7960178462547076,-0.2094801017925155,-0.0719548093714781,0.17282472299115403,-0.6592363874561136,0.741281139731135,1.307927511580886,-0.6677216066541486,-0.4125606880669338,-1.0098627720880167,0.43307889357730806,-0.26657297432854093,-0.12320293062589643,-0.3448141030248881,0.4183626432299009,-1.2928504540654582,0.8818693367960084,-0.8185408626466918,0.053944694660468195,-1.7696864080412185,-0.6311466791596366,-0.6617204742140477,-0.9453646790905317,0.3394157305387197,-0.35198150267998013,0.6979023166849426,-0.36342384258711563,1.94079229996512,-0.4361170230331086,-0.08810371963756201,-0.07333137965559175,0.5367673408935976,-1.314355922707834,-0.007792939128424883,-1.092264528376055,-1.0385094169250413,1.2757376607360909,-0.49068751931720644,0.27685721952006975,0.599329265850017,-0.8732089933080144,-0.9110513541897947,0.34165537474211066,0.3421307774938291,-0.2195157209053645,-0.8786944931122231,1.500373994170846,0.2988062844865072,0.14757734044166268,0.5501257444409308,-0.30296290427377465,-0.905280198312044,-0.7219655113988948,0.6341444963757575,0.9152427536156468,2.2849293793097876,0.9595771805697833,-0.6951010176926957,-0.11465172333756123,0.03217049236965348,-0.10265232553716709,-0.04189453690514671,-0.471380407240828,0.4141109692633283,-0.21351415989036127,0.05555085189368307,-0.750058984533792,0.39936969698126606,-0.6068134109155856,0.9136058255651406,1.7289855537756051,-0.38332957073310747,-0.163960219720764,-0.21987882522963914,0.5100739190719892,0.050925880544652496,0.3220387893463855,1.112629285232876,0.4634845566095588,0.7336358114997761,-0.31455851341606705,0.09699850921147621,1.0880359778880266,0.6572253414308915,-2.2822938304000666,-0.44065110405812125,0.7770911168627258,-1.085917626601573,0.02596866486527367,-0.1945348081922349,-0.4233088538943684,0.1412301234543347,-0.6141883007405684,-1.2319847857602342,-0.4475160238523638,0.18790420218063308,0.9087371017349458,-0.19695560302213974,-0.6423932562760977,-1.3336955962172208,1.7144789924199217,-0.19923285700821294,0.8012051523842613,-0.2089712898132526,1.056763019706444,0.8646543887229328,0.4131900588972244,0.3509041079768462,-0.7226437324186099,1.9872182321112304,-1.4680261323160286,-0.3759913714289089,-0.6914661264362024,-0.3737021209695851,0.32673281883672645,-1.290051404528442,0.17912366334155425,0.2061682371817622,1.6846616467638136,-0.3328497497373482,0.13701490441221584,-0.45360853182483213,-0.2646568886983972,-0.42199250226398305,-0.2385523600992401,-0.039130517250845695,0.5084042257398707,-1.5164922015079334,-0.13234446825226784,2.304204082588572,0.07633735896674203,0.29871384996170075,0.18037701744438203,-0.060470006416722503,-0.07982601174906304,-0.3226504606138978,0.29320997391304127,-0.7718410605324451,0.8625951957862871,0.6359703128360539,-0.5214004751769622,-1.632265274831968,-1.2096275180930105,-0.36856112717359213,-1.1124996519465142,0.9224079478453499,-0.4664651609155123,-0.48741996844508234,-1.0465462086629143,-0.3137016919415813,0.005720580256546263,-0.23084637752854573,-0.13871240106700639,0.18599715475299666,-1.084538970112836,-1.4777859163997513,-1.0138121282211103,1.6441274646926327,0.35450336884911576,0.4512759174254687,-0.29683079240200105,-0.47462741803422,-0.6067813480227132,0.5809870561120717,0.5596719785563496,-0.6598945085393668,0.3465791314034321,-0.2162627793926299,0.32577445531851573,-0.7749117957888522,0.2840736057083385,0.7035034668733301,0.29183526817023986,0.04298336234416709,-0.0590855849391959,1.127729547085453,-0.745440487221492,0.15744704889800656,-0.13549863865732303,0.6548627132448542,0.42379653861834093,0.7484977698121614,-0.7426070226947206,-1.3577070698951479,-0.3923669372785956,0.6762631594943816,-0.09379385224830918,0.4363004694831347,-0.7688372881604109,0.3323933510235921,-0.18426118520353152,-0.8670321095232874,0.3567940129562141,-1.0895888083858747,0.06358819737009998,-0.36836869372749276,-0.21248987679849243,-0.36649290812761137,0.9269826936374788,1.172103506430882,0.11858317358787077,1.2020611832571515,0.42768657347339495,0.03239944773619473,0.0879123741946864,-0.62805549641784,0.04032195636077678,-0.021484028526649084,-0.26655645779523174,-0.16809769577955005,-0.7106670446601994,0.16123709093488192,0.7674595064045324,-0.47449161463212836,-0.013917541014573105,-0.2548028112266232,-0.32503376769985654,-0.8417442148123615,0.7067704717425192,-1.1423314963410318,-0.16827484062064185,1.0441488733799786,-0.12222276238720346,1.0073120366318926,-0.052327444314734184,-0.03429445286023418,-0.19490773734750585,0.5425626065684663,0.06499304908105007,-0.9084367858269701,-0.4216202124682968,1.8016299803550908,-1.9176056114508242,0.6209156069584845,-1.1581775439186868,-0.6128524544984592,-0.06851479935942305,0.4835719117159441,0.24572172344211307,0.3032160083431552,1.741318084592314,-0.2860852855183419,-0.4771204732462917,0.526795484479932,0.663874200998,1.1352448057845217,-0.08556399675696337,0.8638097260817273,0.3734575860241643,-0.46900739262725444,0.21585465489897243,0.4749487158550533,-0.5982195550747182,-0.3165405027387639,0.27075982700563384,0.2742984371551477,0.8348358678080026,-1.301640826410368,-0.46187548887477914,-0.15471229433529202,-0.21938739248232944,-0.12186291818905842,-0.6951389832802716,-0.8557435406837107,-1.858136474035457,0.19771227185819754,0.185203723405724,0.18139779886716006,-0.1258287125977774,-0.38076883997747374,-1.2869326499508764,-1.3890321667889904,1.1158585858256729,-0.03658048876923483,0.04578564502247235,-0.49628090848724504,0.13655828887921906,-0.8735096737709596,-0.41600354702433207
