0,1,2,3,4,5,6,7,8,9,10,11,12,13,14,15,16,17,18,19,20,21,22,23,24,25,26,27,28,29,30,31,32,33,34,35,36,37,38,39,40,41,42,43,44,45,46,47,48,49,50,51,52,53,54,55,56,57,58,59,60,61,62,63,64,65,66,67,68,69,70,71,72,73,74,75,76,77,78,79,80,81,82,83,84,85,86,87,88,89,90,91,92,93,94,95,96,97,98,99,100,101,102,103,104,105,106,107,108,109,110,111,112,113,114,115,116,117,118,119,120,121,122,123,124,125,126,127,128,129,130,131,132,133,134,135,136,137,138,139,140,141,142,143,144,145,146,147,148,149,150,151,152,153,154,155,156,157,158,159,160,161,162,163,164,165,166,167,168,169,170,171,172,173,174,175,176,177,178,179,180,181,182,183,184,185,186,187,188,189,190,191,192,193,194,195,196,197,198,199,200,201,202,203,204,205,206,207,208,209,210,211,212,213,214,215,216,217,218,219,220,221,222,223,224,225,226,227,228,229,230,231,232,233,234,235,236,237,238,239,240,241,242,243,244,245,246,247,248,249,250,251,252,253,254,255,256,257,258,259,260,261,262,263,264,265,266,267,268,269,270,271,272,273,274,275,276,277,278,279,280,281,282,283,284,285,286,287,288,289,290,291,292,293,294,295,296,297,298,299
0.7710519621304993,1.3530513279055,2.425508775768686,-0.07413434620589165,-0.6610470984102909,-0.8459264836141988,0.644670594664409,-0.7169341981022689,-0.26060621654808563,-0.5247704001385337,-0.8265953968760066,-0.712730341014294,0.9571480587547154,-0.08228383404222114,0.30475447264965333,-0.4182362496446206,-0.9093783853692274,-2.027995621997004,0.8439165745278038,1.4351928468701614,1.5041527601771252,0.4155321219844766,-0.3116559074931408,-0.38669493523945697,0.33770734390096857,0.6653724205833337,0.7200391913919337,-0.07162864828637601,-0.4109411650493676,-0.8427571800259779,-0.4112630339072394,0.3178005753313324,-1.51919076710422,-1.0500685105374024,0.31436990363772155,-0.7300970727039058,-0.5789052319324579,0.49659975437826265,-0.28352543208836645,0.1671807895275899,1.4633040464331308,0.9723033450819006,-0.003536101380419631,0.6755382661361886,-0.35646586598771324,-0.15877931363944425,-0.5070480998478595,0.30478355331807655,0.9551373312907011,-1.0786362192911925,-0.2188495866216732,0.7855903767836189,-0.32944059871546744,0.9485839663089416,-0.0989157943403471,0.15030779860433266,0.7884699244974757,-0.8916181708262997,1.452988311037109,0.11541750946937429,0.1585194479592163,-0.5935402664077738,0.7726261571988189,-2.258734810020961,0.9256159415642381,1.3979889872117595,1.7559460478822786,0.4466712409935681,-0.6891670541044466,1.1622256479042383,0.4446737188633616,0.28962169407139304,0.06610542226480913,0.8722768092305485,2.067389698439519,0.5714171388361284,-0.1753988744747144,0.5910016794615368,-1.321320653568604,-0.27232966967610445,-0.7367936256917434,-0.7605409598298356,-0.7577692207589362,0.35630337470541595,0.3639945541067136,-1.1474668221131765,-0.2541316979995703,1.0172819152759454,0.7009756445073949,0.29018109977952333,2.182594263619955,1.302579453935884,-0.22832696831240298,0.37986815384453804,-1.1517752088941782,-0.4861109886588108,-1.2178766824939815,1.0109630769688276,-0.9243966987727821,-0.9375975668303884,-2.335410896142395,-0.5427247516555098,0.008608735990674514,1.1550004973502581,1.7683915982440315,-0.3833037166614007,0.33253439041456034,1.0761446788880407,-0.05078027961961502,-0.18594611105482503,1.1187914406584316,0.6842799359858378,0.17112927843061856,-0.06236934620552329,0.7489555851429339,1.766768638048416,-0.4971256155258327,-0.553029184880081,-1.1342008482607246,-0.11162391878545666,-0.48022704528665205,-0.42102299483364986,-0.2660775633657924,-1.0487861644175296,0.2633529720511363,-0.28295483307120456,-2.0793262434048665,-0.03358216985366421,0.2718840997054466,-0.4898015293067576,0.5266038548356974,-0.912451100203421,1.0797268240796563,-0.09309553756928743,0.8621324061536049,0.878734437674249,0.5682177056880592,1.5436124265577635,0.3913518955825798,0.30553002334002155,-0.48382765751896,-0.39694695120488827,2.136845465446695,-0.05182938080073281,0.33157124045806047,0.08990942295200247,1.2539518330506378,2.0058058168780306,0.28571579061690827,0.29712487924164427,1.0088540296017756,-0.09257333341408065,0.8006709231442669,0.16052077456756847,0.9610421041615373,-0.7521098941348728,-0.6086196901559845,0.38614220914736974,0.47394983364529786,-0.07393162994604413,0.2783463397411405,1.585088343607616,0.8446654165239434,-0.3788624626529625,1.781685111413276,-0.07701463086691278,0.17135993188948045,-0.12324660440553625,-0.3629262866517545,-0.4488198664697701,-0.4973376174916826,-0.3461425108066584,1.0927464784257461,-0.4650250063465529,-0.7283264650382046,-0.016442448619344487,-0.3544310711910215,0.565483865150654,0.08687135848850729,-0.623390109550935,-0.8485283865840261,1.334109544058927,-0.027152225725059487,0.22549254654656403,-0.19742209304117128,-0.34103365549643344,-1.7434188586715758,0.35340331546093556,-0.2560874592592617,0.18175978024269165,2.3569999574432834,-0.5142082374287005,0.675109050280969,-0.5876199608627797,-1.0691791875612442,-0.4558251169671365,0.6443787023173668,-1.1331432991007147,0.19175649143481188,-1.3276650254081064,-0.5145619832770673,0.11833532043497431,-0.27793324185651935,0.516359522537325,2.2092917474034177,-0.23539469535928315,0.44119496582660334,0.38123892538438714,-0.6973021393315292,-1.05189245546917,-1.2783486645876836,0.22421725104526954,0.07890879424197274,1.6871738716512534,0.3385949470003507,-0.25719313591157383,0.2322205342893432,-0.7965495751734366,-0.5230084269529893,-1.7236356702634852,0.5410442821138112,-1.353548666777507,0.10928722026250445,-1.2340119751238052,0.039323807418190644,1.4371975514516497,-0.486838888802923,1.0982611774066542,-1.0967116424440007,-0.6797480243878429,0.468915150281055,-0.2194939116599103,0.5200632318759943,-1.4903950335929994,1.178112580978965,-2.2088814158826975,0.878022904525622,0.43525817041758713,-0.034322033987744346,-0.42098352054089694,-0.17403911366901437,-1.2672061911218662,1.1631398630113106,-0.6531621196579781,-0.6287447103918448,-0.2996999147401383,-2.1251978651251626,-0.19070231033309396,0.7521354391478678,1.7013321847847827,0.39316910844145325,0.1873089914718424,-0.2865107279027439,0.5455275752296094,0.8710282647552344,-0.10164149678781323,-0.2578255290510717,-0.19047332685344529,-0.4389339854865761,-0.037535936010627956,2.166384108971759,-0.989218509438052,0.7968630994305064,-0.6554382984887558,-1.1667300209215727,0.2122988829666282,-1.3796065535883788,-0.00048297923745982196,-1.3186165826954097,0.1531169674843981,-1.6865810593179476,-0.6611376849034841,-0.26128290884428645,0.45222167007215025,-0.599162936596978,-0.27305175520950703,0.07510451864564213,0.010153025951824853,0.2373511211529729,1.1593257093846494,2.1717877817711106,1.2718539556799828,0.6235762341978722,1.5005850614618361,1.0406007136468618,0.4294214886612796,-0.6803845299180066,0.1598492899681587,0.18257124337082767,0.9491261580892674,0.14219945326571495,0.25541468809649176,-0.603224801059189,-0.7109914005108837,-0.9549294734137557,0.22208380223670357,-0.4777061268777005,-0.1600929239557397,-0.6752973753637805,0.03202503962727356
-0.47795834909284196,0.6754895929425432,0.24034860004416086,1.0186290377088763,-1.3260708883971242,0.4332068355152677,0.37344314089076774,0.0291351428627389,0.7981155561144813,0.8542820275609074,-0.936760908130733,0.8723228586046383,0.1971603761872245,0.6237645521469565,0.6835927896612664,1.6842485353567456,-0.40540042921731784,0.7154124558824753,0.49928905646326627,-0.1783018743109997,-1.886594430690857,1.7127838784471348,0.1312972145170973,0.8277736749395982,0.7745222825024217,0.2555345536009563,-0.08074688772205733,0.630498797429457,-0.03789660762973052,-0.18508462233836137,-0.4025480796250299,0.3140879453528328,-1.7837734834002539,0.5237227813760167,-0.09106288673555937,-0.9150288988352069,0.7029487137793895,0.20915261571789337,-1.0204820543018218,0.9019364751806522,-1.407040504946616,0.6921768394829526,0.2485264247801587,0.2916047143370294,-0.7023193679880405,-0.32859352552081333,0.06203166807397857,-0.9747859020876711,0.4790068464785919,-1.0710104157742866,-1.3808390133860373,0.49921054645672275,0.23541824372033993,1.639630289197025,0.5439844727355155,-0.44438116283527435,1.1236682351797942,-0.6037838622051588,-0.14186077070715253,-0.8635767726560918,-0.6551847585125457,0.6592135359730936,2.068209743348017,0.6463093861483885,0.06016969187897043,0.3998564429681545,-0.20126737931903596,-2.3434558988698373,1.6614729912580792,1.020340202856623,1.0981694833592934,1.0243675124880443,-0.28516540621035774,-0.8945583925245663,-0.2545390392814306,0.5495933169404749,-1.6894436771508132,-0.31707633962219006,-0.15406176632613822,-0.7379342172353776,0.5503327084786156,1.8582118807633667,-0.43457975451936287,0.27686022320583864,-0.129387624541464,-0.9910933052900298,-0.12337027435309844,0.6720697743120722,0.6475208598803796,0.2516063558501173,-0.9328062890608394,-0.1153323101893027,1.7421490442621919,-0.17896920127219484,-0.29900154332732876,-0.15943577371247722,-1.5491374482233926,0.6658951075574258,-1.9828572438402654,0.25393984462601443,1.3013200966050769,0.789074525178484,0.564626033800789,-0.4727420745283925,0.1303986178871162,-0.19914057962660828,-0.1547199603958259,1.2556552877516052,1.013033010834473,-0.4126256214736806,-0.02100916771392415,0.5556000298946044,0.8807972751799604,1.3349559353526,2.029090523775793,0.1380102084261935,-0.6031317812639725,-1.5431328864036054,-0.20739549145823993,0.3612143333006239,-0.6915878237366224,-0.44053376132055444,-0.14544493718058954,-0.5653083081566521,-0.16801047118361712,-0.1733004770740165,-0.6285980681416465,-0.6653703207781448,0.5156689877452567,-0.201594540978419,-0.10901793863565058,-0.87352174892174,-0.8454526844043434,0.49279647538401394,-0.8990895263121981,-0.24767727015692664,1.4542117900348364,-0.15553857212960595,0.6408531708375772,-0.10599389732312556,0.6891126047668253,0.28002678519193264,0.9956638125938709,-1.069042104704942,1.0200996701918237,1.0883107142945854,1.5407680685945626,0.7793532242740172,0.6888499372578749,-0.2860518646073775,-0.6415874821104347,0.6529260022434742,0.09997743570812666,0.5340283411704958,-2.4030307750791393,-0.3881142809530241,0.3468966016390939,0.5153785226706692,0.8707222404165147,-0.6208694511820168,-0.16175693981701506,0.6013487475586414,-0.6656485041897308,-0.22947438877889542,0.376665113073797,-0.34790814350264987,0.0790726005615752,-0.8242575177935803,-0.8956895404770303,0.49701104339552593,0.3051912192826301,-0.25460151852275337,-0.17038322255623278,-0.5797372019049878,1.1195242366669422,-1.4769594039357656,0.6236055165637898,-1.0820329601689933,-2.510181133467207,-0.7510110471532816,1.5866670069441295,0.789796649069099,-0.7787483422320676,1.1545077068169387,-1.1680304787816387,-0.4580645301005121,-1.4312158380406426,-0.41019086620928835,0.8368649134922984,-0.13584237689352865,1.5435036347427407,0.12144171987569707,-1.7330479751709242,-1.4774047155817505,-0.009674826796032317,1.8313313013357166,-0.21138401957079267,0.6717069440759798,0.536242474141572,-0.08142676716480093,-0.5856385247291344,0.34951158690666134,1.0112763119476493,0.578889971754023,0.020294661824259416,1.4890789343905877,-0.13484596018532308,-2.025132577176319,-1.7618380666431144,0.25870312776714516,-1.1970519491951093,0.22050453356584845,-1.3869248017202924,-1.02421149612845,-1.305552188711467,-0.4265349438123225,0.20168570506295452,-0.23057394089563962,-0.8540465725453117,0.11499364741668446,-0.1337271765255588,0.9407385876851604,-0.8319667545120137,0.689734611270304,0.46945009769202556,-0.41276544761912776,-1.644729575011951,0.8933499383462059,0.35421405220826313,-0.3197710334005911,0.1088028988153498,-0.48913537072226215,-0.17774443079745939,0.5976005818765475,-0.6983180648342163,-1.1616832343897554,-0.8853706070349443,1.5260400641326581,-1.1687396765196247,0.385155928150532,-0.031426977920961774,-0.7906814307392867,0.7686028810695242,-0.4476296456013052,0.28446973335955,0.4144413441595327,0.9666974070999873,0.8732232557158276,1.2956108569398943,-0.06251045280341241,0.4647427864810847,-0.01855440929291109,-0.5858373847177448,0.7737744205698421,-0.5735042176908313,0.8431252994932694,0.7768478789704787,1.1733823025676522,2.306305757873515,-1.5257479361823274,-1.4443293419552916,-2.1245222285773546,-0.14041652671267243,-0.06785753228185569,0.7547874285197518,-1.079602573801,1.2527973885882178,0.8474253088453686,-0.8161178260762898,-1.1767929334873777,0.7094190085288484,1.7740156172306951,-0.35130659278610915,-0.2583435924068351,-0.050959234204915736,-0.8285833748093026,0.9741280027169286,-0.054796529603106894,-0.7894156600538595,0.9039543978490383,-0.011357417101439627,0.7328107415475351,0.8007982902788497,0.8418343355666587,-0.4635638372025916,-1.116133940886253,1.490413449864641,-0.050752518145284205,-0.05430078179084243,-1.1473232099700208,0.7641438156222848,-0.6184752760083496,0.6636967099448337,0.13114454788249952,-0.17223239171616034,-0.005467490730546198,-0.2899998132318428,0.010918167154370622,-0.7296704224786175,-1.23748212768852
-0.7476916599953106,-1.304358120743256,0.5092286752635621,0.11850815462802519,-0.15352829074265958,-0.5807646839858571,0.8307481559828008,-0.8368865450278624,-0.37025733377681064,-1.194592824123295,1.3039497347830729,-1.1571350159508538,0.03357109157711629,-0.8513521174380859,-0.5946198634029104,-1.461284856186268,0.08794762043622653,0.929319456599655,0.18367612751913978,2.0428258893855853,0.1758171745473647,-1.4881043598921537,-1.2446181459280923,0.1145801714847627,0.054135858576850736,0.6918120868273403,-1.4046593312087023,0.6275192799730457,1.4356896594676212,-0.6194777115209495,-1.6968357851455191,-0.803541321591091,0.5745865901187948,0.13465678151293492,-1.610773093520246,0.8773328390818661,-0.5020179686284532,-0.36868896363010895,0.7264491275757698,1.0980145691547694,2.7358949667394987,-0.779539700867097,0.7004800776480464,-1.0197599118856142,-0.8991009332958857,-0.8726278236009994,1.280013700083722,-0.21951318145961515,-0.39535802407741594,-1.1379611634625095,0.5079650479425329,-0.05716187538256584,-0.18658331771804323,-0.4600444805277968,-0.8451343506313013,1.7929540732095435,0.7267626541813599,1.3772141910189468,-0.45897497086228967,-1.5371566132007353,-0.7098018281790944,1.3602624884491854,-0.39967749748571024,0.6801891359184913,0.6472080797648534,-0.6236269714957311,0.34698985726264553,0.8572905730347387,-0.08212733853138435,0.47981663563537785,0.7793845739175148,0.1256815749331048,-0.6370839696723982,-0.25798165006195795,-1.6287086179637098,-0.4763299747391517,1.313310154589365,-0.9240051831840829,-0.18243230137011165,0.43151949963760244,1.2543794884156676,-1.1928159978435244,-0.7189340464381317,-1.3573070398956597,-0.259139633549999,-0.12111199367194855,-0.733979774834755,-0.6815363992679845,-0.21391408838265122,0.05777406227086108,0.12380203834033052,0.37535753368220015,-1.9198020549475745,2.1275381202395036,-0.3094638758647917,-1.3000739357215862,0.22479023546060478,0.2171399798744921,1.5378618855298982,-0.048394431533054776,1.373745415579395,-0.023308100251748943,-0.6646991666905857,-0.5735916688947437,1.1679306323842114,-0.24417290615382437,0.495057512454128,-0.580300003073191,0.46364994974750107,0.03651513516599946,0.1917897528505373,0.17120925413731222,0.2367284489163537,0.3530302144293161,0.3415904334512296,-0.6233319371695646,-0.2909073575311316,-0.9867145075868071,-0.22183097695569928,-0.12208405422252742,0.4751912206555999,-1.2429826314742447,1.7477997851670461,2.1892016309485505,-0.7735245176059734,-0.3711746001661011,0.4516501292058961,-1.3272150863006449,1.379446751613179,-1.552421830935555,0.9422689111186597,0.2227019297402916,0.6267712792663092,0.06425082865176028,0.549387899047577,-0.6241984752538786,-1.0309717425270162,-0.356019230550679,-0.5119202006104683,-0.09676594396561893,0.0227262593143394,-0.631045383156283,-0.28978781848341667,-0.8566859378728652,-0.2947775522700159,0.8211296069901475,0.054780850703245364,0.14453540441052637,-0.12315860001973422,0.6578025495726084,0.4617074997641372,-0.1830756550833943,0.7329860142148737,-0.0639323700479852,-0.7404840921807965,1.8548141325628147,0.33445066214728086,-0.34843872361354206,-0.37611361173719843,0.736793522205967,0.7543513822902072,-0.17541782496625302,-0.14193126641387993,-1.3346988197501337,-0.784093464315949,0.9487906084707434,0.09382522345518166,-0.3289087399210286,0.11760498635959754,-2.06370062974261,0.09911797965101825,0.04136005934657703,-1.351417036713032,0.7744323768490767,1.0848684769117136,1.2072777531907792,1.1336541783797511,1.0996256782715492,-0.34457266675127385,0.6523621265757352,-1.2941823335039662,0.1965016958468274,0.1317074289990863,-0.7341465364093445,1.4992341158872824,0.8487759080241621,-0.2891234382186091,-0.16134086942602827,0.8246522370910649,-0.15317025149491711,0.012727624625207639,0.5450321164233619,0.16069804422909448,2.0663603617082464,0.11979497025543528,0.12477842587803509,0.38493325825014807,-0.08364586017547664,0.9692674364587633,-0.34970238943148374,1.656007320533081,-0.5854940079194301,1.7941761472340634,-1.3104196255203258,1.7591604775651055,1.1770336591037691,1.6686403886241128,0.8589873208227189,0.019442132065309627,-1.161820421396963,-0.37402477994539285,0.36494625831464755,-1.3561566124269455,-0.8199835405735154,0.9003804306409339,-0.18663747647773474,0.36434500547784443,-0.5348190029491922,-0.5250703307001645,0.48301371281926736,-1.1016510897225151,-0.4492240674501775,0.6844489209822977,0.14753125813114012,-0.7809402450748653,-0.2778512159095215,0.29780927488025066,0.40847380849933596,0.5710941113372279,-1.1414882328152298,0.40478813101427613,-0.3087872026120345,0.40912396268344453,-0.3170214222290943,-1.238896529868183,0.12353128919729364,0.856261720334802,0.4181179739822837,-0.2783689841022075,1.8742727162751371,-0.36241708434845715,0.6129350289164825,0.1435497490086983,-0.9135747051106161,-1.0593752184302214,1.2575176312779428,-0.9746628515197671,0.07634241890602564,-0.10929467231990926,-0.27403290046990003,0.16520355335472056,-1.3762449480347632,-0.7171829509143901,-1.5692131354795482,0.926125526594538,0.48268023513235714,1.017802725842208,-0.3824624010665369,0.45021763707509344,0.05930229058006122,-0.8360893671234113,1.2717396737804654,-0.6857423140924458,0.5128894483975246,-0.9503103098442558,-0.007105161412192728,0.9227189456921521,-0.039568698922112504,-0.5261645973074778,-0.6023598910171748,-1.358060762626791,-0.6347850996240602,0.646215707696504,-0.8758506480867001,-1.1860337245383803,-0.2256203228090066,-0.21026830177513114,1.03004885317909,-0.6401104175669572,0.43459889522725886,-0.16169430251971692,-0.1047139385017896,-1.6096586817798297,0.7026344018352092,2.3368195455940066,1.4710997789085074,1.2600536295966451,-0.07282452281506319,0.8189218969438363,-0.3666508018072352,-1.5152246396474123,-0.45883282765908034,-1.3725542897511538,-1.0150628101313341,-0.928531839007223,-0.64882077152729,-0.8013575170226752,0.8903204323029197,0.05161663891507472,-1.0960333487990288
0.3031560159686992,1.2376673040524335,0.9693053687452615,0.584423688985329,-0.29743173615898266,0.5651744990582968,0.9527818262006669,1.5659730636401552,-0.1764210445607123,-0.6864232282511928,0.014898168464871442,0.5047289047551045,0.8161308775156795,-0.5523338599075172,1.901811447060546,1.2871879498983045,0.06678632241748246,-0.8570563041971838,0.7091173687904534,-1.443144996966317,0.5989736440505444,-0.2971595655807396,1.6625039666287478,-0.8344667972346351,1.11634614221488,0.31201905275666253,-1.647151602117573,-0.7476718489697995,1.2792705871224768,0.9795724046107133,-0.20407600480701554,0.049403282312381634,0.6906895093376801,0.2262453077631964,0.8637111015671224,-0.8098040634594403,1.7112247801965865,-1.4878489992751596,0.5120247692467216,1.1339094616783645,0.32969699984903467,-0.11524028583169321,-0.3142797500454343,-0.15920087809034256,-0.6267195299687803,-2.15859679092575,-1.0463353045286192,0.2663168731341256,-1.2337484638410896,1.5444750960880111,-1.0423791300654612,-0.5652588950201508,-0.005656038744215333,0.5496260679034918,-1.4495278129958007,2.0008233814046164,-0.19712340781907206,0.6727309348501981,-0.7222772387077968,0.19257556200438614,0.23108634612154577,1.0267521548151421,-0.04132280552629647,-1.458341836940155,-0.7515052617063254,1.4233017868833773,-1.9713504886731115,-1.3694933229628459,-0.3816831832624392,-0.8148708980684815,0.22252463654645713,-0.44456420717565287,-1.768714856830661,0.3049112096817813,-0.15417217423177781,-0.4087466718845374,0.12382401027614294,0.30081675787058704,0.8812388954567986,-1.1354152818457037,0.322007918908072,-0.1660602357024392,-1.2871107407910916,-0.6753478900491967,0.8969882745720976,-0.5922324426831513,-0.16777858075128776,-0.2824421701398398,0.37580869081606577,-0.0534333007009891,-0.06386708846301697,-1.3757030022771355,-1.6768820876391188,-1.8691826616758571,-1.1877920219289484,0.2899290631672527,-0.02336020524040062,0.5409691952366683,0.7963444058917011,1.4534612271125777,0.33329966167240194,0.5623909197035433,0.2117402644451412,0.04192350506414512,-0.11617570965911256,-0.46633859820858947,-0.5039819507282484,0.27871027809372134,-0.5608301727624889,2.160583579883044,-0.2756067767089057,0.42670614683528474,0.05795269312080298,0.714722713009302,-0.09942033449727952,-0.9128169664903648,0.7029233526473706,-0.31909472402218947,1.3371950954722485,0.03023529708038263,-1.4374173877720517,0.22508531754276076,0.25798260312415183,-0.43426185142487866,-0.2672608118987515,1.0532617629685606,0.42720451501167556,1.0844221736690107,-0.8807370738904764,-0.7445307604921566,-0.7654602329143491,0.5728348252234418,-0.048788407850696124,0.842822691140177,1.1761142128236024,-0.0334059515419467,0.3968022215632764,-2.079865209599013,-0.31607693152524136,-0.0047876994656957834,0.2130854971748545,-0.3581237607201812,-0.6978273146071303,0.02521417502180552,-0.557243535202444,-0.07065631549212592,-0.21474550708968904,1.1812657389668277,0.6965657400329076,0.4867092558732349,-0.17449235900573626,1.153017923263845,0.2679882240686254,0.3753401605336236,0.3957214681335889,0.11639534578755982,0.14570072996925185,-1.004417165506582,-0.0011863395386938226,0.19980261954142617,-0.4229230272666968,-0.46160631423169574,1.7276272028897515,0.5723252675772706,-0.3947037064556996,-1.6371099520293035,0.015373501300746398,-0.23182888946849264,0.21726738657994457,2.4694200540877804,0.13724207535753277,-0.5416147043615128,-0.7194841498768583,-0.6561520105654615,-0.15491582305024204,0.4633299557109332,1.1315664034059592,0.9027051690179825,0.594010617209508,0.359961206996546,-0.17641621931353044,0.09501132188932447,-0.6553337954520699,-0.3518153816477652,0.18961586419844773,-0.38459491277133184,-0.09956143336551974,0.2514261188371496,-0.17578895932244593,0.09905324599543613,-1.5817723642953445,0.017066605293587066,0.7106654407983719,-0.33823132099471803,1.5605254697703517,0.2057529997423908,0.0913957095947565,-0.31559456854804335,-1.4452398247416138,-0.07581036562506001,0.7515968380587096,-0.5461252630165172,0.43445869484092187,0.4276748253004765,-0.8970091095814242,-0.46009078924067404,0.984208938097847,0.3902494993224823,-0.49041032664720546,0.4347107603867584,-1.0684429102689783,-0.9559323902662423,-0.43924175064680104,0.22944025318269268,1.4582317857322773,-0.4726421484194843,-0.12157040356274355,1.1311770662583187,0.805852534556036,0.3845090893105043,0.17872152520864354,-0.6050145015021058,0.7136998872996902,-0.5744203700259115,-0.7302372917011992,0.7849783041811521,0.9267297383604441,1.0200989216559757,0.4210990775398932,-0.08453073201818856,-0.3931589010216587,0.28937638837100116,-1.5879084263216312,2.137238346832023,-0.44762435210513224,0.2676814508407111,-0.27579378900905505,0.9103556440385264,-0.6325544114622578,0.38893942100305706,1.694516272225136,1.1104112043790206,-0.5326788686356771,-0.1326760317821756,-0.06233955909629657,-0.08844082342514667,-1.6363953757796244,0.36512404008276345,-0.4447129295363672,-0.7837864489704899,0.7555672373664172,0.10909071214992565,1.577265165189794,-0.4208077162864156,1.0308691001594938,1.551040868573017,-0.2074803988667033,0.6201676711204175,0.5176131196863099,-0.8484720302689592,1.0863616040967055,1.0503909836529826,0.3443603525725246,-1.565367719583633,0.6907608567435797,-0.504013600595358,0.2385578871932586,-0.7462370168856287,-1.587379070113829,-0.1062503867928359,-0.5251609833771158,0.6157344390206699,-0.38742434158300004,1.075612417947586,-0.21546496634785958,0.40856085540686155,-0.6400664563609515,-0.7634705667463648,0.1054128755743361,-0.3343441237566556,-0.46636448055837176,-0.4771730743875695,1.0976450210072946,0.41991055984868614,-1.7699337662315968,0.8621247828679898,0.45148363441310896,-0.3679794178706352,-1.1119732019389115,-0.1503543731843883,-0.15746434297852832,0.37997641221573397,-0.188790165207217,0.629469597859075,1.893301691662236,0.6885660988567534,-0.109928444553465,0.4927209636771815,0.58827247164273,-0.6617092642504121
-0.18646945320543465,-0.4469910527158263,-0.5201415436950216,-0.07154237596511029,0.8802589914000828,1.1034266606829377,-0.41198026794848225,-1.184521826298393,0.3684068305310839,0.46751119486257053,0.5368333410479705,-0.163571648198138,0.12928890302069077,-0.5778174570398239,-0.8698355610135591,0.1024708006566009,1.7168195235090256,0.3847340285073342,0.049337996188627185,-2.439028323754893,0.7185136608221693,-1.5793373657930154,0.2868297968450374,-0.7455103816212036,0.8500404753833833,-0.14666404363895175,0.6839792608668039,0.216079861472763,-1.091736217677793,0.9238624332591695,0.07313546322424633,-1.3439609434064657,-0.21006769432557987,0.8321477167768653,-0.6667914078936764,-0.797115737726423,0.11638392296082899,-1.8369276424464682,0.0387444932539916,0.610497927607991,-0.6683931587711387,0.6372371256161855,-0.12341161057506142,-0.36882649193018374,0.05333976085635077,1.0803414521126187,0.24005949756241782,-0.5087723232006552,-0.36164720574903475,-1.2887276293391499,-1.0365274234800192,0.5131991903656197,0.9680720916417791,1.5208909820039138,0.32257814253795547,0.5444121531573544,-0.9005605072413931,0.4096604027596701,0.13979021446718162,-1.9661394500265825,0.7312537382930295,0.1807661736643391,0.06941259389929556,0.08166872218253295,-0.12923349784805427,1.195365708285837,0.39977959082921577,-1.1485642371531593,-0.13997938884159572,-0.5312618155226785,0.747306515961645,0.27086586948514996,1.4290634330582659,0.18874047633719251,-0.6200508178946085,0.27328657105549514,-1.1528659175988816,-0.3912293444519117,-0.7056920789007541,0.022289210076595522,1.6506937136890443,0.01247760645184163,0.689903719693052,0.87957822883751,1.2747015260730323,-0.09485568069314673,0.7610942869033775,-0.11065757641808358,0.750323201485369,-2.2288276772809192,-0.06596836374771732,-0.7287699634757059,1.7184209048975627,-0.2375416057696391,0.7922602225551789,2.590404130335777,0.3164686974093715,-0.41807442300755093,0.28019744447712264,1.9330378322698243,-1.1389942957477017,-0.7627118149188621,-1.4004652189784008,-0.026353610342504337,0.19795441359378857,0.3126240158027948,0.5222256669613177,-1.0210148525619307,-0.30254333860294946,0.23369253268005657,0.9168303633109621,-1.9474823279377311,0.4685212745804184,0.45318085512689993,0.9822818476254521,-0.24193623471236117,-1.0216662938570078,-0.06899397540712664,-1.8788989436447894,0.770664690135287,-0.15796456826851302,0.7279281716861854,0.3674759954370247,-0.3616091883876094,0.6420521996068429,0.36400855136711685,-0.5090228821820089,-0.8325018227987264,0.8645065304143594,0.2912116074294808,0.7211393382077947,-0.8915011069506962,-0.7633653099783276,-0.995994038675045,-0.8934781051708628,-0.5482204596431751,-0.3369240226880484,0.9881316882460203,-0.5528490997187421,0.35077896411500153,0.8861599634045019,-0.01953316089827245,0.13298573335262426,0.4447257357406255,-0.41929822608384204,0.05004546418225531,-1.0818606584297352,0.3058795047996527,-1.1924162837928276,0.2855510542361755,0.9828640949785249,-0.9745190597451139,0.7914229116015056,1.1447592565047475,0.3839188126015364,0.10122816337189941,-1.0036899136743873,0.08147948347196207,0.11927097016251587,-2.3363277318263975,0.9373265880630571,-0.9695355653200923,-0.6983737991273395,0.17700023590210798,0.17839313723411637,-0.09132997520309885,0.32862235920599,0.7088000927284343,-0.43117248382615797,-0.23529796255448363,-1.0571477195880157,-0.580761253154918,1.0551642093522313,0.4785212668477588,0.713789918483448,-0.36091177688968296,0.518642122458619,0.972946365046102,0.28157256882529974,-0.42510876952169246,-0.5379133221934921,0.41698704643553003,-1.1103819714981658,-1.0451270512696011,1.5060591538814403,0.13586598806915695,-1.1600973971015325,0.30745341902355194,-0.7011152174778075,-0.5948889317808705,-0.8424830055509576,-0.4847599408557376,-1.4488477466985086,-0.7744340128735714,-0.041566617801765855,-1.8375649594316787,-0.6703143681521725,1.1017293446499492,-0.13242497743963663,-0.9744478465028491,0.03456376432696843,0.7892754578508848,0.8733402299288722,0.6093936348120222,-1.1152830938196998,-0.3674241072881336,1.7040679274700856,1.5983234683520966,0.9210569804153353,0.7020311668072312,-1.956883867458605,0.944884819276825,0.45859925849328675,-0.332089105660325,0.3536008195862104,0.06851862356835092,1.4164828009882584,-0.8739454628886842,-0.3503082815030619,-0.16459946915853843,-0.41563071613804814,-1.6855616768234098,0.37381127627436006,-2.9698622578532556,0.0734443648759242,-0.7487173883071381,0.9613631958771964,0.8268123359848998,0.23137799390052602,0.9834110884213866,1.0023580776968886,1.6846965091269779,-0.06945008767167833,-0.5427645513407039,0.6487516001161392,-0.39162053991942175,-1.331474748523166,-0.5700693318169814,-0.02851436672909391,-0.42661113616849217,-2.0018580119546328,-0.6849025581280765,1.359747778327186,1.4883098716071275,-0.6904821153791119,-0.7286151735350564,-1.637015140838683,-1.4323158497844246,0.1272547959820719,0.47906361938838055,1.4876350180527431,1.4048269239243272,0.9489569725816153,-1.341636422681707,-0.4992485815882582,-0.1534630024767542,1.508027151380775,0.13271535374550775,0.25249458910824996,-0.0818065758958215,-1.1284049039134965,0.8098124221680971,-0.35596425370089385,0.7514230793030772,0.37623082207978237,0.007819988988536846,1.6900701346125218,-0.23297141963266108,-0.4305776862526129,-0.8379957159062622,0.01418892321392688,-1.0304214884377465,1.6276183998607772,-0.12015466022499555,-0.43457279333931065,-0.8142807640672453,0.4248721410118534,0.46447673485860375,-1.023102559451271,0.272033023529286,0.8660555920453165,0.2569953524351563,0.7648796315356283,-2.4149616592341756,-0.7680379455050242,-0.5888889455062939,-0.8168945189845372,-0.1364873107557794,0.8727603304307892,1.1770407588590877,1.1163138984709462,1.0031981665293137,1.0698409243943454,-2.5023809249433504,1.2288229772563812,0.5889116793079465,-1.8704171906320237,0.06845579416237478,-0.41385120654956475,0.2724504158509268
1.007176160586754,-1.1829369332220185,-0.9893913319829565,0.8325527285617512,-0.9113711471408648,0.3630024411679896,-0.9544856574066203,0.0046615123207486165,-0.19070120378713734,0.9318814948421275,1.4088901600007326,-2.2338115984433036,-0.005455221159218018,0.13606985381747666,0.7386159640535984,0.8908114529478347,-0.4439544207900856,0.8455993815170832,-0.3080301234986191,0.9014025866860601,-0.3863222569303838,0.8929067259874941,0.07392175713795882,-0.4745934987004393,0.15782784046737175,-1.0044332452043718,-0.5104721037918414,0.480389606742895,-1.8908386352189286,-0.08702735353106425,-0.1580273152201431,-1.283696920245323,0.3769978514638901,-1.0303052866415987,-0.16521579853371335,1.0885974702997525,0.13684006294958012,-0.7519247648503231,-0.539373944463214,-0.2379160614949757,0.19552054354534334,-0.6173515408463001,-0.11816224023494998,-1.1988897807712542,0.9207369623767759,-0.5220076042788254,-0.6310226678546291,0.8937818188544577,0.27661857936331946,-0.5313788994210344,0.13467694606784958,0.10050871986699134,0.03827722080709625,0.599209024227405,0.08804784276699071,-0.3951647727071932,-0.20384970875395508,-0.14354060099985655,0.006184381394379153,-0.21420747260105952,1.221833895925902,1.7266493283678963,-1.5965960282274227,-1.7224472915917153,-0.9417146418790775,1.294177235780433,0.02138583852253394,2.01026883963868,-1.385588860409627,1.0619760901083595,-1.5929034180124801,-1.6489509129461555,-0.02887019607667407,1.6798692886256967,1.9382209458096427,-0.6553816047761647,0.13793326706423606,-2.0644135959521255,1.4606709323756446,0.6061208343858754,0.357112805783103,0.23990949167823422,-0.7276770632864048,0.020319151126197785,0.5490167068525269,1.4185625392635983,0.5701438965729049,-0.2310135348350538,-0.13880153075905058,0.47070202861430593,-0.41569283997291645,0.4127511030606137,-1.2248134755546711,-1.500809403845639,0.790086700362001,1.4866613007244809,-0.057352403837087756,-0.8127606999145291,-1.2460930847057607,0.2698111236180281,0.8843864860797027,-1.5959291505513744,0.4034046326385809,-2.928261560629841,-0.30827868637357037,1.372811858856112,-1.318525234363844,0.5562037998729487,0.20136419809308406,0.7326517754112445,-0.23603480167244043,0.304427825373416,-1.7249517372581857,-0.4689243289962302,0.03890359828809542,-0.8227860089666295,-0.05404144665632958,0.12228481475811954,0.7300538944287772,0.5613409054078142,-0.4609240574293021,-0.4320379301408589,-0.2990675663901117,0.37793625847841067,1.3152082071207603,-0.4160277364977038,-1.2562608889928792,0.07345147544352194,0.5415409008446407,0.5997537049723353,0.7175202860834176,-0.8014363433607249,0.18049596394022643,-0.5157458380903246,1.547943855408257,-0.783127988845298,-0.3742182721048208,-0.02507946789093096,1.010975023048453,0.012777488617118587,1.0675160180701986,-0.8354848653105327,1.3288451896537083,-0.44937660196520157,-0.8941586936591263,0.9347944957117121,1.3636148813580746,-0.796869184203894,-0.193560117237091,0.2283998846089599,0.9581917375792007,-0.32274740955162207,-0.039274821671821385,-0.5646205132646755,-2.217882319932944,0.9964871928177044,-0.11295173583990238,-0.9051414334305834,0.5963121243954177,1.540589516152733,-0.5415302034398776,-0.3561293097695702,-0.28931421349823877,-0.5401006013245994,-0.05151412630000337,1.5959256906580017,0.004311730943754211,0.38472373763716583,0.6399573015924347,0.6049167192046974,-1.722140120633189,-0.11971306878909463,0.36442506641449285,0.07591914722278005,-0.18821762973016712,1.84987457116793,0.8590041561565612,0.5703481882743079,2.055094747763738,-0.4229608036581561,-0.5715653259332293,-1.73455645840993,1.3934847779999944,0.45793717535181794,-0.7474709147883232,-1.424699705483543,-0.13565257989813903,-0.6119143918589943,-1.3365758476617562,1.6904026128530565,-0.5870306141955094,0.4678149211006227,-0.5090798812498696,-0.6113564987105246,-0.6386821401375026,0.5135250102427084,1.5375718105077942,1.0265189791093814,2.0233043644902886,-0.7106432582403305,-0.8360763850252084,0.4305109634052953,-0.8471446629332385,-0.5887403565130619,-1.142922615361466,0.7383458339923826,0.2817707693434087,-1.0505557395793703,-1.265029348577111,-0.11506252891396378,0.6107983571068776,-0.5514616471402142,1.4064033838348116,-0.7322474540470179,0.9914333308724453,-0.3443216961895223,0.3902710799707392,0.5385914891032418,-0.34351043637659723,0.5578524362886208,-0.33566821867352065,-0.6519417515464099,0.5998974778602286,-0.9177309299871752,-0.10283906679896075,-1.0985950508929305,0.0036619826175245,1.6853807595812407,-0.7499496109658953,0.9786563609230655,-0.34200020504302614,0.8260483863833907,-0.1733229633580014,0.40064678352549155,0.10713596991877507,-0.6096727575059067,-0.06269977101368869,-1.86075528439418,1.21251175522086,-0.19273689661908083,-0.22171123373141144,1.234337428965481,-1.8801823977573247,2.357188946997746,-0.8500082717229811,-1.0195386848667918,-1.184021174717287,-0.16627806658454167,0.6607678793445688,0.30588299026493204,-0.3793686047253925,0.9012657127568833,1.4803755624651895,1.5945031613092748,-1.4637688941585456,-0.3489400986062553,0.3593294951322771,-1.7629588940556604,-0.7960183506025605,1.6046532520669168,0.8666834370038536,0.5521325352640049,-1.0242758682526043,-0.425881368929321,0.25693322504914573,1.563756829397281,0.6080144085469207,1.3561853321737496,-1.0554403724736456,0.991175874529055,-0.5130891997865408,-0.5954329373180488,1.8221781137657165,-0.46221221912726984,-0.07402794050711904,-0.4211773581195642,-0.46787254929822203,-0.9713930700977387,0.35578920042924045,-0.43949067819216664,0.12065347706451778,1.767700976091118,-0.62382827924242,0.02527284462463933,0.4808707660092835,0.07964353374591772,0.3791117310464499,0.45431549014701167,-0.2883577754019716,1.1850064368566369,-1.6683316366180134,1.2459319264774933,-1.2304164739014,0.05887304315924037,1.5847112337835305,-0.5648706142204956,1.2253044788238816,0.14135838350293162,-1.0065958009839406,0.02643797766184067
-0.37034011481880114,0.5967185371093763,-0.7650585846259049,1.9484271864627436,0.22848232702631402,-0.09667481255432472,-1.5099009454743095,1.0615507290496387,0.21090201525215874,0.4062579090498454,1.3043016770782832,-0.5217103208953368,1.224858185340863,1.1501221804518917,0.1996281477401389,0.5324887446630601,-0.5990303728335781,-1.2435991615872781,1.1285615622452363,-0.6868189852838072,-0.22307205280604628,-0.5547438065416602,-0.673278106013466,0.03693904175430026,0.4171408300106635,0.025437822418246003,0.04768139985750306,0.9351233100564306,1.1565778796827846,-0.2750910744845953,-0.26161644065923345,0.10424066102358956,0.6025726023017194,0.37572097209605315,0.7872460922184307,-0.7695922798094308,-0.8287775375708949,-1.711656081641516,1.0555360427918647,0.3619143243874678,0.788770300786422,-0.7249404021395157,-1.835026509822381,-1.8312215385300106,1.604642134474106,-0.40227429407523,0.7271778616391301,0.6212166296110546,0.45218644055287416,2.010437020892741,-1.1325810414857773,-0.5607243255641121,-0.1406769268544756,-0.06710798727848837,-0.5960519091140635,0.43065926239904756,0.62234016005622,-2.2507060931649883,0.8655973364339938,-0.22937434514117402,2.0321625712090556,-1.668314641899477,-0.034314562978565534,-0.3639959674886952,-0.5062486032122834,1.4060741692501202,1.0604853138869192,1.2544226820445619,0.3565049981375931,-0.15507629394052738,-0.11773609737117774,1.1036095585556889,0.4821244378682416,-0.9011301740969476,0.7070197979249936,0.1956260708465725,0.26163265146826614,0.4366656371373037,-0.0014658310485772123,0.9473296432629805,1.2424394756884156,-0.049473704785137476,-0.8340093100971678,0.020852433377008227,1.7917264341918064,-0.8325078881297341,1.2792671939302092,1.7862975681936617,0.5835160522536115,-1.1555217937851263,-1.0097302884198571,0.00783888473856886,-0.7525661063349804,0.013308478861386142,0.875618464018635,0.7483769293640301,-0.1207625219876483,0.9211860631648113,-0.7782742937744596,0.4010379221433401,-0.576981708766702,0.4981597542812601,0.032506797005296205,0.533848867017764,-0.26215848039203854,-1.1207685772333866,0.9699338455209523,1.6629514459428911,0.41381944416426775,-1.0725345156016763,-0.13896158874459225,1.3956335066176133,1.1401802949964677,1.0938150665378605,0.9469031196923341,-0.7010404952129293,-0.8030183703055898,-0.892311074967038,-0.15561930213229513,-0.2781764097008365,-0.9473915693146443,0.8006935420174588,0.2418148089004262,-1.0141491776091656,0.091850297974118,1.0195184007901241,0.10475785360445376,-0.9556484219957154,-0.07760980692651415,0.17221278573677753,1.49200739433022,0.4867070977975053,-0.9669960482628381,0.6654992698051826,0.8426291951569236,2.431723216343222,-0.8030290335096723,1.7247510463468516,-0.7623577622454337,-0.6905406074942394,-1.005066261800986,-0.39161607952537675,-0.1459647459147759,-0.29383088898929277,0.1810544753079271,0.8311201084984907,0.14192766861112105,-1.145400926973203,-1.292182860822808,0.04804573582546504,0.6749634454416844,-0.5453476800747386,0.3369965776361479,-1.1977507744668305,0.040145315821649596,-0.3787699393895127,1.5237788463171809,0.7542316911571788,-0.41057336306565007,1.2575013678387965,-0.16222166269113317,-0.023243291575511416,1.0088587678393703,2.3266799168547627,-1.1617764034874096,0.037758089876010634,1.6865655877256833,-0.5645644992297393,-0.2820316701897393,0.25264700337062007,-0.6050685488849895,-0.4105768157255534,-0.0712034819616556,0.4758644196279608,-0.15178388281318442,-1.1978742807240348,-0.1885741796921987,1.327810473779779,-1.3433420619542953,1.1349944763656599,-0.2416103978310048,0.6636587439898098,0.8072245191903044,0.09872103413355432,0.486348721388648,-1.7539666029936158,-0.8451432246443702,1.5716219818799084,-0.6144352655282402,0.9015006739882683,-0.4594161315155638,0.36104831226561973,0.3416817364887387,-0.3260576158650527,0.26299243653046095,-0.785162542816598,-0.05355242234345611,-0.04480739984754592,0.7861645101040617,1.0071365350819501,0.8669755507152495,-1.0600235242595666,0.4507953128938159,0.10244213353039267,-0.08130580086494955,0.9733471630595676,0.7354317995501815,0.028138584820224983,-0.7636545533878777,-1.0005864127085085,0.7615809024124583,0.5217223519523416,0.30035584962356393,-0.8869192470724181,0.6726819587421062,-0.48251381225126533,0.47976184736369876,0.9030281562944027,-1.5862652098001424,0.9190616447612874,0.10005838529802569,-1.3411326515274689,0.3736507264354731,0.4651463157581377,0.14550014302888514,-0.4685423136914903,-0.4187106387535875,0.193467355391173,0.4856534878173843,-0.4090981814870223,0.06448758732059495,0.28314779985628835,0.7813563756865004,-0.01132364391849258,0.22545306017440997,0.25396002678544394,-1.6820385712712311,0.05981491200822872,0.1985029470716793,-0.8321666481839066,0.9404782642988674,-0.9223122182729522,-0.9373876551535454,0.4722094354501069,-0.9121274386312336,0.35671637099614395,-0.7493799214618109,-0.6664342378626322,0.24917527003006157,0.5447113936098855,1.0204016071897641,-1.5369041757255237,-0.04824259039618193,0.22151042216296685,-0.25577426952045224,-1.0771320972987886,1.1742348733454229,0.3425411023388213,-0.5382747709790443,-0.06259175103686468,1.7204483767763663,-0.06709438686348482,-1.4844466966797676,-0.3897462180477435,1.64917691074877,0.6528167244738092,1.6006252292093377,-1.5604697141664894,-0.8668835079466064,-0.1959368734819709,0.34171988774183654,-0.834618481689109,-1.3457732156489979,1.0656503560613813,-0.6934240833436737,0.9629322173843076,-0.7363139660440721,-0.3142986251123625,-0.01118107250380575,-0.6636847957513211,-0.4320080891677538,0.9417519932267657,-0.39879814130339813,0.48124462578993166,1.106985504908854,-0.4622894544844419,1.1532462771441683,-0.18840265864684744,-0.38569573286603787,0.8910370141645441,0.27918820965718916,-0.8239492119919156,-0.051015357596524126,-0.32979049030001584,0.4452737424732508,0.00029764275814144365,0.6907622468407884,1.005721982929074,-1.1183959502854819,-0.5217752977271054
-0.1388916783234402,-1.9520142416001907,-0.11048616601581293,0.5177459698092634,-0.41821987353651996,0.6372851620689464,0.6264631568049831,-0.5290195189577751,-0.5139724147481491,-0.3832162460718545,-0.12716417688580928,1.7360846960121834,0.195499726856984,-0.6447138901477338,-0.6946116084888032,-0.4209528544141204,0.650839151427207,-1.148190106903104,-0.6279220055501784,-0.02645699927318284,-0.9139293394957386,0.13404712256618584,-0.4693698602235933,-0.935641356911367,-1.4491349181793185,-0.6979969534786561,-0.6104941870515854,0.12222029639689655,-0.3608488793742177,-0.12851233443050458,0.8070658863086516,0.37932737747718376,0.5275666242848971,-0.7404662929890882,-1.0037929824754197,-1.3009213029448974,1.031762856686909,-0.9752092250202037,-0.09474769793518299,0.65495323544296,-0.6086101893932657,0.42011930115349205,0.48841307788224614,-0.8444251580220316,-2.804917770301771,-1.8171773043899933,-0.44338898101188373,1.5348548319889188,-0.07802265518428685,-0.453169891523328,0.6102618177034387,1.3898340691739646,-1.3084120055893358,-1.452336019627574,-1.6123641239406894,0.3559758440107947,0.11899087116374307,-1.2516415124058513,1.4530625342457693,-1.0063369582645036,-2.0986441811258048,0.38530848216450403,-0.006636351580055531,-0.7618576835422546,-1.234496110339659,-0.503540838016514,0.7897925735949186,0.5637559597244489,-1.8685078108495656,-0.21110801636901652,-0.5718002371786309,0.7848078778200005,-0.49705146900158403,-0.6390059666717947,0.3840659872029936,0.32063885959946337,-0.4130085447925554,-0.48322235982553496,-0.2893915187200574,-0.9610705717876891,-0.2771440377366436,1.3509940476619249,0.834630434834114,-0.13460058520427368,0.08364433753122445,-1.0755164949990332,-0.6528627969512123,1.1315592260133411,0.3616449335624377,1.3626980427027529,-2.1862347270837126,0.9126524792067521,-0.037650787213879496,-0.27333839558254097,-0.36529969785890054,-0.8654860887056827,0.9869545747662424,0.4081309160583715,1.1440333034338797,0.08231663996960974,1.52296118768638,0.321650909366913,-0.8871937349249902,-0.2801751394540095,0.41271682290879386,0.8441238018677513,-1.282740832073996,1.7561141329133578,0.4507233581208738,0.5879294954043126,-0.23229265925271905,-1.1258065880221084,0.0594776691488972,-1.7260999466618898,-0.30563538358444947,-0.18881485164373224,0.25227448937105057,-0.7192402575799562,-0.5757009769048611,1.7349770064401018,0.675748030998401,0.08635113316461993,-0.013692823487331848,-0.25799777591860623,-0.21630671291911074,0.618716817247788,-0.6520943956729263,-0.9740018588172324,0.38280619843078273,0.22629970387163706,1.0505467786561666,-0.0969630337638594,-0.7314361025205596,0.10221408094509228,-0.012834790727805417,-1.4466206891791615,-2.0734614084730763,0.6217661388428768,-0.046484515444901904,-0.1864374858834815,0.5055956671325398,0.3983481485288457,0.23496332777429918,1.0770767077513819,0.8280366145232256,-1.6866981275395108,0.9283722860068943,1.0852116674954648,0.55497378191745,0.25087244809187265,0.435275908858904,-0.6789520972911046,-1.0361261732027722,-0.31139341269026266,0.44067721002758986,1.8909124407393765,-0.33839366835491275,-0.12782571558438718,-0.605145782671073,-0.4034133145598327,-0.28445153773666393,-0.7969665946873729,0.010603340398824015,0.46450550927647105,-0.4143448183190546,0.027617312990002252,0.6561389461996584,0.6359381621614173,-0.012562497627503359,-0.7319786094107777,-0.004450492888162936,0.49401269731475683,-1.234669978926689,-0.11778486181143605,0.2930580018647342,-0.8645611371827213,0.6425214751351732,-0.6862657243642472,-0.6316788125930379,1.4972505817982211,-0.9346297874401566,0.08874235972017964,-0.8022965251020693,-0.9045609444292176,0.3596244664093455,0.6314284832849988,0.4955902617393032,0.6028517257114512,-0.2232618131568967,-1.4462471363895166,-0.8426597369097266,-1.2222548583685047,0.8489946630916168,-0.31346903732495346,1.34683351454959,-0.07068682199128859,-0.45853661503815407,0.4012274029419292,1.634287330379665,-0.15376458594071665,1.2795824936839373,-1.9987623310747629,-1.73606090452111,0.38142524452038856,2.1110388339964725,0.5384433206034605,0.41852573499187185,0.25671194393953045,0.7480010534547483,1.2584185116921618,0.10860089079670653,-0.24136709092543532,0.3377749071282075,-0.20833249677936141,0.6046900451433158,-0.21914268184555305,-0.7107074619770816,-1.8320630211804272,-0.21866473917100016,0.8158878139380148,2.1292895572364627,0.06505324632625593,-1.1697501785742197,-0.19623235116868035,0.18814598440813057,1.5966380285965653,-1.0544461725409482,-0.7650417121936314,0.7105045358359172,-0.526539459513078,-0.7621807432670801,1.5459803778933232,0.3262427255481498,2.385657885840132,1.3170798747879602,0.1251170847521177,-1.1312803078559985,0.8101322421495952,1.0927618042518739,0.3542813444533169,-0.14173065139857086,0.09586418930737259,-0.07120776067766578,0.4637108328008101,1.4895879282024542,-0.38020570127231235,0.40564044740096855,-1.3575484909773745,0.02164560888257722,-0.7110264884693707,1.1949269818452022,0.5391856247237402,0.0703571497528119,-0.9028745984704095,-0.35386801800041506,0.6814467657939188,0.5763466217825288,0.809497922894497,-1.3371550729350512,0.9588646308660915,-0.6461954882703035,0.27805525808353454,-0.39461653035388766,0.05582002937652503,1.1671186906426745,-0.3019403088250436,-0.24329803611013437,-0.5025917110302441,0.8812855378387069,-0.1617214753428277,0.15427159560970014,-0.4823019784469655,0.8178839916973752,1.3378962798099685,2.405850295267404,-1.3722929918126368,-0.11553976215890471,-1.696104568070789,-0.03701647897571303,0.6610560146433444,0.32173543486412143,0.5505312594692667,0.8840105224521144,0.6635484397600319,0.055690965208105465,-0.04721179424851097,0.48511402451364,0.2097706191916139,0.9392263214034747,0.4790672850175716,-0.2825046083256913,1.3941124120609947,0.4092462354730367,-0.1835674166428222,1.2012500858784034,-0.3523965334591379,-1.2164974869181875,1.7652994592426943,0.828151354689099,0.8180622750558507
0.5906874662712903,0.006667145505135471,1.6208544296827017,0.6257353884645919,0.636317522365395,1.4690358017792164,1.725612570522985,2.4241924981331477,-0.455423490707474,-0.7188005695720362,1.3335570635917824,0.20973236846479307,-0.5550334235464551,0.29831382684630087,-1.0694888096978876,-0.008802756404611077,0.7488625627921263,-1.1571650450708186,-0.5455779571680174,0.4513689395918525,0.07770042857856045,0.5812481641165338,0.5685828902678798,0.7474554491220449,-0.00669901136473652,-0.5326880969700587,1.2162192301336765,0.27521460720678476,1.0301408872764095,0.5104258156555908,-0.30245532876327047,-0.5946676844637675,-0.6962138591901502,-0.16188179376497797,-0.2281118609501635,0.05068473254160183,-0.775221319098183,0.48594669724194733,-1.443029968608307,0.21702196442508712,0.6687267844835431,0.7436439195838287,1.4770580714724253,0.30182662218017353,-0.6339800429412342,-1.2018186107479614,-0.35908380185472905,0.6954786404915918,-0.33744588819641425,0.2929032232392483,-1.085073010759939,-1.2276178169269845,1.171091441942101,0.4937672071582854,0.7473028484906912,1.6437400459531302,0.6150393969190974,-0.4889603239266809,2.1522839010872614,0.7795901067971367,0.3395761407282146,0.922822025319611,-0.43340552517555,-0.3225486986423505,-0.9063349928402576,-0.4453843451602146,-0.05169403990800874,-1.4897706860878241,0.00466027791710997,0.6587806796628263,-0.7700576522668394,0.7159851011642961,2.293082217716366,0.9466707753751913,-0.4987391494852155,0.03817221160681281,-1.3021317326280508,0.36949858191219787,0.9950073066862472,0.23503412731261936,-1.1418043294445122,-0.41749102153274287,1.8433552771003148,-1.0148365470702336,-1.0120095822701654,-0.7201967489825754,-1.9797817360816021,-0.40300673103459866,-0.3035955590242782,1.354208352298677,-0.9520733835092189,1.7028648711829588,-2.3841781182050563,0.03933860852811223,0.7444053656415898,0.07627960324466435,-1.190768801754377,0.7206462283666589,-2.3623224914700973,1.6733136143535645,0.22722840682042092,0.8718925914629017,0.7486471902559183,-0.6935615312519181,-0.27490218928169907,0.42189711436545696,-0.5130462557851414,-1.4531569698328974,0.7723950244274873,-1.8137887775461667,-1.0121642424185953,1.135669499182557,0.9478135132635711,0.0521183392409892,-0.09603843567967467,-0.011357184395610778,-0.8812402158050543,-0.037293181685439714,-0.8061376315910784,-1.61560435996864,0.0512908440622695,-0.14586829639406154,0.8765305060064371,-1.093124213868421,2.056367980288603,0.42781726629158995,-0.36844051509918596,0.22750866280085408,-0.5623835592686208,0.34892366699950084,-1.9692644739052507,-1.3773171763784382,0.3905435913262339,0.840737188959387,-0.4962459311252531,-1.4516242832394812,-1.5525980689582903,-1.7525256446750288,0.17888632314057198,2.8415205093117937,0.5006982741484752,-0.07373996635228916,0.2817018720600584,-1.678572500993253,-1.2349799902338787,0.21466854844860953,-0.3203974282974475,-0.6082627671657239,1.029977881075484,0.004368710099560806,-0.24553860885022863,-1.0246689432917169,-0.19160415178139797,0.8771132515206156,1.0624945405338662,-0.950478119345514,-0.185393520828312,0.6039805048152912,0.08038354680419395,-0.052416130046958824,-0.8635721341270041,0.5183626183998838,-0.044927270605396974,-0.5490037232423405,-1.326579729160985,-1.60226320541479,1.5138484019948657,-0.15604259424796657,0.7968325219903198,-1.2842428411590652,-0.8793659831191389,-1.5248329331294648,-1.0625613863606853,-0.5522767709282006,-0.5457825603257928,-0.7885696281948181,-0.11469321316751835,0.43131694700251444,0.45470098842402445,-0.3623766022689295,-1.0247585346875165,-1.6916661364641041,-0.8207835713626787,-0.5429935693083643,0.23408658045356023,-0.6963022249745903,0.26504965999495644,-0.47225984266730336,-0.44348091170528375,-0.489155221782324,-0.002105776568528224,-0.10230358758948799,-0.9426624572007202,-0.2277059328335421,2.0290401821956348,-1.5724100927837534,-0.34963889369799195,1.0932614087444688,0.3480917212722772,-0.29788096509816353,0.5574624290282278,-1.437313975641224,1.044908423105529,0.003055056303113169,0.28160839579634434,-0.30958790962573296,0.18425974592420605,-1.260373231006794,-0.3663602251726764,-1.2272918711654315,-0.685640937252703,-1.5576893312162272,0.7317177313804729,-0.19049918940174082,-0.4987303574199705,0.027075988282055017,-1.1272811274583296,-0.1412477495084909,-0.05326064162208579,-0.8813931356934789,-0.5965888701519223,0.7288534077423874,0.047824722165945924,-0.03311214355161519,0.4749875317808461,-0.3318139688497939,-1.0874451327286463,0.23341648263579462,0.2968226581896782,0.15917444921772939,-1.0918690411365872,-0.15790673129727334,0.005593797785101351,-1.633412377520683,-0.5882397360910491,-1.097072993690735,-0.44888988166123794,-0.4188882783748904,-0.03903328441072058,-0.31125542601833495,1.6469341779091151,1.2283595485728376,-0.11597458729074332,1.2295856571394388,-1.0165557474455487,-0.11465442615144981,-1.858137831668724,-0.5500838829506146,0.9077570198721981,-1.110850154129683,0.04640423932031794,-1.1095099802536674,-3.5253654307607767,-0.03948627480696325,0.8273471134641108,-0.5596707232913256,-1.0327916155334411,1.6228460705649663,-0.1620071944940069,-1.712863709953127,-0.8720438578040579,-0.17540629713507094,-1.0535734289278817,-0.6838247226070174,-2.6429824728492255,0.24116234278554363,-0.48925367746716875,-0.5547879922549048,0.5056161352891755,-0.9000534998289624,0.5083256977271866,0.608207240142434,-0.1421131251116957,1.059557612309466,0.8422654941349439,-0.2724979817241118,1.001445550016801,0.48289699141460385,1.0264260590672232,-0.2836027005223388,-0.4917408260381813,0.47437670578089497,-0.8826296136489463,-0.6229085968648455,0.913000588368124,-0.19976975389070742,0.06396281879704573,-0.7629579221850046,-0.7699898034099497,1.7538950841518954,-0.07573276117769046,-0.4750342343591429,-1.640052671670171,-0.8581966645613471,-0.13081759494764797,-0.3297760251846757,-0.8266408321027987,-1.1131190186770294,0.9407260144092754,0.6813659677610628
0.05300923880735579,-0.7838754826002099,0.518619622914467,1.507025108737968,-0.3366188804347882,-0.8502068309258035,0.7861409417689494,-2.862508061785583,0.33701628813362333,0.2999586492215455,-0.8866817646587559,1.7671411491574474,-0.8148388816716131,1.5910761439440773,-1.5078987625505569,-0.2828764776018683,-0.5761848895299063,-1.2297501251124225,-1.0138894074549147,-0.966637715830328,-0.29471940045224987,1.1068676302771199,-0.3622585770230583,-2.2968229365832977,-0.969677231693859,0.4194865022790015,0.6797736226496355,-0.6865790618783065,0.670073896834936,-1.7440196855278658,-1.138332076736681,-0.4233087615250873,1.1034138626277306,0.7568030333868166,-0.4328678150327128,-0.40318358093331214,0.9769042655773461,0.28035838043579153,0.2873756875213254,-1.2132650110225922,-1.2449086388195012,-0.3784194809378939,1.2098180130395706,0.6426308420207066,-0.5439682855005354,0.666724464868372,-0.22464197288629176,0.3383525626890958,-1.1512454855883023,-0.8564627194873942,-0.14811229226136924,0.13757753004230072,-1.6692589334802845,-1.9285947637119012,0.8031731745203013,1.699443273476565,0.3710061940287591,-0.011396248842662583,-0.6619717930720157,-0.2486081688393931,-0.579274148916756,-0.2630706635784462,-1.6011821061728293,0.38045854763083004,-0.1423516010119749,0.5081973026785447,-0.18352601657452844,-0.4397674583713233,-0.42924508008498524,-1.8280620382396375,-0.25506497051279087,2.069178809079444,2.272083025790497,-0.7058589832923012,0.14957947592488754,0.4114648356315614,-0.6108861402666791,0.40869420117755745,0.04413136351840224,-0.33739279541608314,-0.03248834435715598,-0.43734957115529155,-0.4925926615280309,2.3863603432829033,-0.4708988880287753,0.36023165006967695,2.2192719907746365,1.7881405733654254,1.3672083034746039,0.6630251503846033,0.2085687542895858,0.07273965243552401,-0.5042322724588675,0.6819632584771382,0.5256145613759162,-0.2490430044658235,0.531459045016325,-0.8088343449512166,-1.3722935957414375,0.07753721473480417,0.21101093323286962,1.7299656227367035,0.7990175118213159,-1.1455846627318573,1.815350376406058,-0.12856446028478657,0.5943686364258258,-0.8857222195093732,0.9004892120807858,0.20578554739471008,1.1450409185245898,-0.500238302115171,-0.5004548566880204,-0.5762606375988047,1.282105658331982,-1.3528005760896917,-0.18626600484536168,-1.2243070958103306,-0.6245719996793451,0.5200567978880687,-1.542189071399083,0.3292633722639514,0.5542677914402127,-1.065069248429897,1.8315705096151667,-0.3404199473193963,-0.985807326664727,0.869402699461351,0.399612555422474,-0.00594964409106904,0.7424556471451382,-1.1824236161109412,1.0697569584124311,0.5856037100406184,0.891149491075991,0.08819507707756762,-0.9376246428950645,0.14283600585548495,0.7728137087588822,-0.02682795595361288,-1.621662386492997,1.5755415987701928,1.4381006575269137,0.7000594884849994,-0.06643840918656417,1.1316871544540816,0.8521911291624588,-0.48087246803744405,0.02169739619754823,0.011152070835334994,-0.3059853822331798,-0.710633438787996,2.038053800124297,-0.49370333853777937,-0.025637204397209477,0.007846962438245975,-0.23189373286366538,-1.2550646367914189,0.7440641334490272,-0.9249797998179484,0.41618901675517045,-0.14706142427606553,-1.2413087716503892,-0.0503476094500819,0.3394324325914942,0.6700253729149567,-0.35728935390701855,-1.6571462140180944,0.6383382128163787,-0.5445555613419779,0.2859120836257208,-0.5961643593297771,0.09694019203748522,0.14120726275413262,-0.38804766732474505,0.8396012305017712,-0.19910292825248102,-0.31720125006645605,0.05253944184686382,-0.06943613927651433,-0.6230846428709675,-0.7888164429384826,-2.015459084962293,1.9432548677117738,0.39509824978819247,0.12257238209977785,-0.8955957331220028,-1.048764162797342,-1.8033235465133095,0.8151731116959576,0.831126132483888,-0.5467410355888305,-0.03351145973459159,-1.1657219035344897,-2.0374088854311934,1.7893842409717045,0.31460615501765316,-0.7910339372484158,1.0838646950185489,1.936660560803317,0.3683319496185939,-0.775650141250329,0.11859066637185596,0.10714871863083306,1.2714747277317118,0.21764139166394053,0.12974861210479638,-0.1492254028288371,-0.8146533529002888,-0.603278230274417,-1.4549640238246568,1.3953099425804343,0.17576526334936005,-0.9127065255009083,-1.079178425849335,0.05318482257066379,-0.4878607240149035,0.1065091548911864,-0.32466790677808094,-1.1533099854669109,0.9226619388328154,-0.44261423882056306,-1.5844108149893497,1.221955533520303,-0.8616608988375779,0.2415775473770619,-0.0949942857926751,0.3796069480778957,-0.40484322754662744,-0.33402932598701335,-1.6856178819403291,0.8987826402607825,-0.6386865716179719,-0.04602101426707701,-0.4549880931275443,0.49262844744427975,-0.34374381134997384,-0.46041227825935427,0.20163825136478214,-1.4635707206356148,0.08082084057162223,-0.7693974857859144,0.8410257724321444,0.5233026094054589,-0.1419346506797217,-0.339455723375801,-0.5120921426877465,0.12038744024172979,-1.5241153289847527,-0.3402207698680298,-1.638150593530203,-1.635388612065588,1.3459850556432906,0.27028447163105646,0.016166883417491295,0.011185717491349088,0.18103256407700116,-0.015393875714978963,1.0486689387533177,0.6671787911222508,1.5945679111370585,-0.3828326266642275,0.3842128111561121,-0.0018352766444202297,0.40398046939591553,0.19551549108864832,0.4616345992402087,-0.5102979304973239,-0.5002864792362799,0.7243063085059692,0.11161659237532957,0.6448310979610031,-0.5728126453230292,0.33371027319178054,0.5046799716337526,-0.18364420826120562,-1.5619095105034266,0.09237706118380404,-0.9724378066348115,0.604048077068466,-0.32086343322255906,-0.4272491679998379,-1.5372467004842518,1.1876968926363776,0.8403495598925262,0.3624047313491453,-0.7197563627455307,-0.39599062676313396,-0.007319877683115572,0.9264718533567493,0.19121558916122786,-0.8642779890425552,0.45529405183849014,-0.9490656051091234,0.07216781170165044,0.19656261063909616,0.4937137852340283,0.2371936514406074,1.2845244245921532,0.22781097496597671
-0.23395837788885343,0.8335867726603644,0.4944673851408902,-0.5178249890002867,-0.30375743541428063,-0.5188767105739837,0.021504295553255233,0.11650932203877537,0.8378537423567338,-0.6110738888698257,1.400035272304321,-0.875523641134618,0.5381735096827196,0.08132673756882858,1.1730334318509192,-0.15620548390006622,0.21789111980296066,-0.04369280570787264,1.0458585755916971,0.6641970459871318,-0.16796628847554437,-0.5387026924152218,-0.22976065259645043,0.9068334609106219,-0.4051695645382255,-0.5382579095207269,-0.7448876774518343,-0.6745328218490263,0.28890548856636805,0.8911839786381883,1.0352072758391242,-0.921654350103304,1.1214079930836498,-0.6461911041546389,-0.28436630408820646,-1.5458807958057248,-0.10017597768519575,0.10215289994253134,-2.046733852586581,1.5820175314234939,1.0192720247919984,1.0636374171265504,0.9722136565429257,-0.3990734157515706,-0.47023422231038375,-1.270664488816022,-0.0551380122796455,0.4630461282187083,0.11996441502619258,-0.8423683856727879,-0.2566725067441743,0.650115402987975,2.447971096770301,-0.07047025939924086,-1.2801121233519686,-0.24724199412488143,0.1257679305549906,-0.5219587166366694,0.8870019529313413,-0.7079091621797652,-0.8734372213300203,0.21512861864265143,0.9716784845934151,0.6121113849909943,-0.7338160072601685,1.1452363828709866,-1.6743287086524468,0.1592651094379157,-0.08227616504917756,0.6501838388001441,-0.5607451415389585,-0.05983170935223786,-0.8414092780121192,-1.174340334887383,0.3571260900929032,-1.1253091417783354,0.5030228443819567,0.057273667112664975,0.39609591572308506,1.5820345477469056,-0.19468965884054992,-0.3044836036215945,1.6679598600197998,0.6808097410522452,-1.376475802055682,-0.43313122633379897,1.058367938058251,-0.8905238965813688,-0.009599733353065501,-1.0341933476527179,-0.16412574925377693,1.1186443902211276,-0.2898367679334916,1.0536992583275477,0.23730312707329332,-1.5840151089351218,0.6381752468388229,0.2324321375891314,-0.7321511047068454,-0.23403927004924963,-1.7646278938254996,0.43293994357701265,1.0063816912906713,-1.1572251360922925,-0.24424280258040104,-0.45127217755077553,0.49762415647651925,-1.050981580984784,-0.7001154566517307,0.4827881313386033,-0.320615592638086,0.4005329918406439,1.3042555939017904,-0.3807382530447626,-0.6655809798294194,-1.2702154360674485,0.08129572923038102,0.920647217033202,-0.8592167894938498,0.49008671930572084,0.41081219346836056,1.2546530922322454,0.4205237462617949,1.4326715600754034,0.6729542489060124,0.140512360077508,-0.1327624477160873,0.4800436198561006,-1.0280677672514362,-0.06838361490899507,-1.3326124963585744,-1.080584387521534,0.9325720138463487,1.3690430893882042,-0.006515063631799875,0.810698276768438,0.9291501614187397,-1.3790496944961992,0.8916069637666804,-0.25733868821047234,0.2099356650862213,-1.2899250083746396,1.3534854347309222,-0.00701961768514928,-1.251420000689986,-0.39679393054252715,-0.504763788986839,-1.5758106941666499,1.1579186533984391,0.0997948984668744,0.6796473811646915,0.7898672090670836,1.7476652533285233,0.0981497442037468,0.6304304396600379,0.2410641014240858,0.41436604962826795,0.5182206967424071,-1.028688577124313,-1.485074937297505,-1.9785985144563782,1.2544856060737852,-0.13494391912792844,0.986506455141293,-2.2537438517743547,-0.22110348116049483,0.7932117051331969,0.3518506220445992,0.11264860046970987,-0.8154966986229506,-0.08068589164488515,0.9454710286814851,0.7760646789601143,0.7704163270814811,0.051000088787160155,0.9872635821648061,1.462389014098715,-0.6657849532605579,0.023262415604378046,0.11209314995109092,1.533396224156973,-0.7579162934321209,-0.11461145920907749,0.059587095242342666,0.05528815398618146,0.14750726131500208,-0.2817557171531063,0.5576777086096347,1.4750464230175917,0.2847901566032247,0.08168728333725646,0.696936664944091,1.50948654478468,-0.07323147069705047,-0.7018060835495978,-0.8232162502344318,-0.6311318312033727,0.12310124306334622,-0.962183682257834,-0.524522756041716,0.3130517475093247,1.6877018724587598,0.13387992798893183,-0.8912260833714164,0.29971417274993495,0.4626274671697306,-1.5109854428680418,-0.2676737563765681,-0.1623911451153419,0.2093387889497735,-0.2570962637198249,-0.3383786886834182,1.7400666368685447,-1.3702992756004921,1.123041946125714,-0.12763736608497578,0.4949573735488896,-0.17040078038557818,0.1034444817602266,0.47446396988797185,1.00450004442544,0.31048949703031736,0.6333467047660803,0.6130289923078682,0.6638945996990528,-1.7948495682176977,0.5972958174438564,0.1478006594044797,0.12295887622649264,0.8533165718266479,1.1738208733469855,1.949805959359104,1.384087655202605,1.7482425969293154,0.7827585810493775,0.5252342388346326,-1.178735236287244,1.2371788881357557,1.3963866177408748,1.8611289172934085,-1.7486975665431146,1.6943869601644759,0.49712725801114854,-0.9463736761033652,-0.7213246551648653,0.5472848517597686,-0.691881033604547,1.968525989590951,-0.14613203131073782,0.43788385337734925,-0.08662099700849506,-0.648446429382946,-1.0252718528670213,0.23033024585404935,1.1517887066714896,-0.9786639797719033,1.1343565171973906,0.4287020149590268,1.8021405467902778,-0.6923367042303358,0.6830347486796989,-0.16062130768797078,-0.6118115555562116,0.06898579290287543,0.341800621893024,0.9131243416017341,0.85558487256382,0.4441196868081184,0.7122773307815793,-0.6919292206207935,0.7054269582996018,1.0238505575889854,0.4665373611062743,-0.38211437632494105,-1.8914712024293556,-0.18181152181484725,-0.5134165219248267,0.7724123864683256,-1.0603144765213393,3.2664152841153924,-0.6409048851939722,1.146277199871724,-1.1828718531384188,0.8858046976190774,-0.22741400691284006,0.24284555140461678,0.9944490273433267,-0.6296685914148457,1.0924766518954105,-0.38175402288690663,-1.195863436618945,-0.04353445617663267,-0.01663592097791635,0.26898777586177236,-1.7501095306031575,0.815289734160723,-0.8411328703359153,-0.2974110943035186,-0.35059300313277797,0.7728769826237079
-1.785686900073762,-0.6538645569353916,1.1233264179036522,-0.5933349942562579,-0.21000585135374727,-0.050268021557941536,-0.44902634966796623,-0.16273985069274444,0.40242041970244224,-0.6651295176185793,1.161764896358643,-2.8300140862926564,0.235853491923114,-0.7195767200262027,-0.5502906316279337,-0.27567686205783165,-0.568210685223931,0.9231875786840481,-0.3862731350073612,-0.37268423053111904,-2.332757887182049,-0.42395215406620007,-0.047660124269058676,0.8046447774484613,-0.0015802781711496642,-0.4820412251472984,0.7817495448703731,-2.029348617215327,1.0604489064342901,-0.34262735684615525,0.0173828376758314,0.44836348303887347,-1.3217434655415798,-0.37338577844117143,-0.9313167947847021,0.9585756271849224,-2.742671389436907,0.3836460695568556,0.544517674434885,0.7290130401155451,-0.007045981579666211,-0.7559108706596145,-0.005113220954136964,-0.18008177732451594,-1.8153403507829502,0.10949502206794759,-0.07303718534634344,-1.3241701588645027,-0.5540536371944697,1.7736662099159217,-0.6760619148003683,-0.741469719422147,-0.9049701993120426,1.340632669536578,-1.160855526221642,-0.41432072928113034,0.3013357790934118,-0.07839281369175714,0.7284584377978433,0.6128409827571212,0.0007594956925465459,-0.8305264363530859,-0.5814285525787136,0.49355261982568177,1.027882537796975,2.523167118234359,0.37475810618888966,-0.21129389257895198,1.1927430281108162,-0.5935187162791495,-0.19300234096637195,-0.22264641843457783,-0.10447957008716806,1.5287260379374696,-1.0488772495672845,-0.08295307498319478,-0.48285827042523843,-0.20602103679868078,-0.4929701278085099,0.3710845586207372,-1.1718967807477363,1.5710473499916333,1.7470747691862427,1.3107711411926672,0.6995174700408715,0.3869891809876424,-0.37739493559376525,2.2852985356194138,0.3793576265806131,-1.0372739728683378,0.8317993841614875,-1.1196842158502198,1.8170511373639249,0.44994662411128794,-0.7732327527314965,-0.18954788043761486,-0.5854411210318987,-0.756337787096357,0.17909106457927726,-0.21288125234148017,-0.25263778208743504,-1.5046007679151518,-1.258957394937671,0.5442269428537282,-0.40470784143198085,-0.5296396602447964,-0.6807583297199695,-0.17731202931877915,0.12691519969226225,-0.399223598298733,-0.8217523139184377,0.4223183869357543,0.7740923786412597,-1.1972076521109205,-1.3827265245732225,-0.4406948726995293,0.5594890627211384,-1.8067531453069166,1.8706487441375788,-0.05983840808061047,1.2885440138545587,-0.4706897783519397,-0.6500401945115724,-1.3490533572528054,-0.8466645280817326,1.8105007124624617,-1.0919649223577823,-1.2610620294490262,-1.6938825253948449,1.2640806137668308,-0.4908704620935244,1.7709562556283915,0.19929675320041418,0.024996916711507392,-0.873029434105966,-0.44384474120671485,-0.5152530405568752,1.4573665132335405,1.9652688209948974,-1.5314647701936122,2.334524699779215,-0.597437628820114,-0.6542711141111499,0.6614916497145712,-0.04712287890530093,1.8742316669548877,-0.7393143763979546,-1.998640389851778,-1.0704719791441437,0.37855283276669943,0.9126971555929377,0.5061869979741678,0.32058918921658736,-0.4604548582004817,-2.0572780332281937,-0.6667104391140345,-0.3957404067434743,-0.32090713542404997,-0.2525263924777085,-0.25498758359949264,0.18035565375615367,-0.07558950654876243,0.43173335293290577,0.470688190628855,0.1065336734339298,-1.243003921526939,-0.2825139073019528,-0.6617215669237096,0.6970906542523752,0.55398875880884,-0.167034163363071,-0.17491215471345545,-0.9147479162008417,0.6045948735576196,-1.2696190516417225,1.129693011951277,-0.5656079042232544,-0.06448301992643106,-0.8806270173987073,-0.7240188943571303,-0.4499567879358856,-0.3710130831287058,-0.3744277443750203,0.8428895185451,-1.6535223984057472,-0.5002280946089791,-0.8999001232537684,1.0276651940210535,-0.33276648905752243,-1.0782288891243927,-0.568427397286194,-0.531618291040485,-0.2883098806525383,-0.2099317684344929,-0.5779109343950852,0.3424703705143593,1.1910968009184368,0.4092344747185104,1.566364883467601,-0.3294726597565677,-0.2938606788082036,0.700438531842168,0.1370697470017739,-0.10786531822231342,0.17189967928492098,-1.1504186042101414,1.4766940373308668,0.8562703271899966,-0.7397984460117885,-1.1296190425844335,0.5387908932190334,0.7875548482808725,-0.5398316279373264,1.26349487641071,-0.5237007068877322,0.9264273546155507,0.3212263182768813,0.8414947958923186,0.5764777059696143,-0.5346152932689789,0.6070288192199018,0.2898825091126828,-0.8654834117771356,-1.6773727599993309,0.13604973001378834,1.4079029335637947,1.741586890401129,0.5662740220516908,-0.22996723330643176,-1.8109633321837448,-0.3470459914507966,-0.5428853825641037,-0.20804868691026202,-1.0084846778837606,-0.9877385579799765,0.13776482930813694,-0.8871401273254051,-1.2807196809992973,-1.3194362915309812,-1.185212420903541,-0.12906252317592481,-0.7861909597713524,-0.2150483273881295,-0.028425951376459868,-0.18099170918575228,-1.2419029259157504,-0.3589457182081059,-0.6489634100492556,-1.0442393814606996,-1.4798192385284628,-0.5527462141068981,-0.4570594377770542,0.3180960840724833,-0.3906025189206105,-1.0927558993692406,-1.183626124776612,-0.347163426789644,-0.5208359616504253,-0.3301971674304076,-0.55760986086524,-0.7865594844340964,0.9670321805485091,-0.30968732184451514,1.0958831468680945,0.8154104537950875,1.1914857500925315,0.2503449709499734,-0.6561376873232162,-1.4685836257072522,1.1181449133077297,-1.135725966169679,-1.8573762906830609,1.0884888240114943,-0.24828763301095294,0.25342609293003066,0.27372878451185884,-1.3409548023344937,-0.8331891315621406,1.3059812358965293,-1.305256917932649,-0.4568530283035861,-0.6090252420968204,0.1579275425118859,-0.3211168715337198,-1.3796039288839566,-1.092156773887498,1.309523468036991,-0.3245717688298227,0.6469820408268585,1.475516171437139,0.8178300805966452,-0.3362960352189207,-0.1967345149242867,-0.3892536468634728,-0.2556325720903239,-0.05432821435394232,0.8561027977232131,-2.8771884187157473,-1.178972183582435,-0.18973718001113177
0.3618114670818281,0.5233690973851322,-1.3424257998544575,-0.9686552728242449,1.2279461504001203,-1.8861073262172487,-0.5112613537602059,-1.763749027418102,-0.600033254626764,-0.7865862100969426,0.23144171740430658,-0.656920453469578,-0.9670782323334829,-1.927862080604998,-0.3818570809711448,-0.22954680498863253,0.6303199547780153,-1.2288696743568797,1.2178373392882327,0.6277163043803216,0.4141310532135509,0.11055883818431078,-1.1709868662942686,-1.773843178752674,-0.9116408930903775,-1.7512855410875328,0.3748267987429452,0.6038625432526658,1.000384552531322,-0.22929597443022462,0.5281538654628718,-0.2793944852275551,1.4454059994826882,2.138080370324558,0.11783833487708542,-2.22270500291976,1.1637495065332613,0.2911918037742455,0.03336130778662278,0.177735385541717,2.911176585537862,1.4903357383543434,0.8036093747431328,-0.5020201864940135,2.141492770948262,0.6644071691238712,-0.16718509869911227,-0.05456941431698914,-0.08660436666924416,-0.236739379469161,-0.06183088129030555,-0.5964910050620381,-0.5891342704743292,0.19008317340961964,-1.0485253676339026,-0.43331259995833327,0.323813318126723,0.2975495042150694,0.1426755418584365,-0.7777964729264455,-0.2612460542834185,-0.796156202035121,-0.5378557472240507,0.04400078091640978,-0.6431430934757508,-0.18447315871089845,-0.151432671721728,-1.0237215396874522,1.4945908060429305,-0.40404564251553216,1.3844775213482585,-0.27860641255819074,-0.49748377185616316,1.1229160406122665,-0.06366764263831165,0.6510302261489351,-0.24514335162324274,0.3565232619321702,0.022383153341056235,0.006936304610448615,-0.20007677374778576,-0.04826848949057952,-0.2557985079675321,1.0840862868386834,-0.8535360797456338,-0.02783652731065935,-0.6051083919927536,0.4148103082497647,-0.22814146134946475,-0.36818413685317364,0.5139248991265425,-0.2546718144836706,-0.1886827541118901,1.5714152430699997,1.7686570533799908,-0.43887410149930195,0.4967929746938915,-1.1814169634208085,-0.8342933814891932,-1.483263124842979,0.1381025892598135,0.3361519148942952,-0.9302213051032532,0.22450823521300262,-1.730446433970872,0.5466565488760543,0.6118241638002674,0.7477232929342478,1.811473389379748,0.03035008769548795,0.74651149789172,-1.2930557458425456,-1.624507790067452,-0.09157136337092955,-0.2903439782240105,0.8156454268409513,-1.1555715578337589,-1.4413487819467254,0.21805408854023012,-0.912091770675838,-0.9399677741606304,1.9233641220550606,0.1793043221912821,0.496374595887015,-0.520522768334291,0.5621326613691014,0.7653763210832875,-0.055277581576008684,0.6221249587083275,-0.5015020955943077,0.7002291941395572,1.5145194653819374,0.06324017616701898,-0.029997483561808577,-0.43205994527974734,-0.21769707411443334,0.1525983528384158,-0.09298868003396378,-0.5465391148783667,0.3675880978468273,-2.532387172922721,-0.45761772126762346,0.6476006303433027,0.8677996413938354,0.8891678935139794,-0.2579187318983503,0.013544205916921185,0.3149157841472702,0.6988241972738548,-0.35115943331310506,-1.2149289812145883,0.09408153676354701,-0.34268741690577514,1.4095429177670735,0.7618707466685561,0.2119970988541859,-0.8567575723909098,1.2301950998382372,1.148418329018016,-0.8851773656945207,0.033827188082175615,-1.0921299122036299,-0.7871265188639711,-0.39849020608356067,0.9734882890242545,1.6092605908622515,-1.0799898431337245,-0.5592683036854693,0.369213814111216,-0.7305598606219044,0.9629807640676072,-0.7614143834074738,0.8960144910385446,0.5412268422738818,-1.1258021860520424,-0.8240931428807837,-0.2266632400601105,0.7688480483679404,1.0915854091365411,-0.9359189284849274,-0.5453547904146154,-0.8473770951679119,0.11241405051296369,0.6617881218338959,-0.24372287454255845,1.416094442983092,-0.02021269758637317,0.08786987285616753,1.3446851015715215,0.13889102636388095,-0.05731472389225126,-2.0225184960898974,0.06291819082327603,1.9878820836201267,-0.38874670653674387,-0.7890839995345308,-0.16754662637841564,-0.7114035540042948,-0.44133094244124677,-1.804966892008865,0.11015187862194599,-0.5668385201101048,-0.5604282804475721,0.6170225388886039,0.36030586235624673,-0.9500772591220716,0.21074774818947548,0.5109568475291836,0.16287221737961166,0.09328834274475636,0.9993733957071731,-0.17200284281521638,0.7063299563114198,-0.9606702054783389,-0.021851688265922133,0.4974833049400613,-0.7773588721954426,0.3384958580504757,-0.6793888683558136,0.44289865330565964,-0.8818898463484857,-0.5132582457996774,-0.5936311739190296,0.2554952406634756,-0.8133857587530837,1.875601342016753,0.6625796890582394,0.2392197173515362,-0.4692359440188936,-1.6315318330417037,1.090780131007343,-0.796268306348795,0.4926560487495578,-0.4742951660922439,0.30485245981989156,0.7730243623654166,-1.1919788576341186,0.07195978429599967,0.20110444413451456,0.7575308320925663,-0.7445106192656273,-0.1956393057625752,1.627616485194735,1.2736853721698165,-0.02299285262353593,-0.6707912776456736,-0.2353187254170338,-1.2345091784598665,0.3443841174960069,0.21789835097691404,-0.8446278152725561,0.7678156496511969,0.8028815012805689,0.3923023160407222,-0.9434411092934091,0.08052968078029572,-0.5869040711413878,-0.22326469467741433,-1.269278048992057,0.6231982583565022,0.14049692143106718,-0.20627949140745325,0.37700840063374846,0.6474663202918234,-1.4454443749906563,0.6541129887016011,0.2533845891313362,-0.27231980426971675,-0.46780431867596767,1.1754745136458515,0.5010912403707225,1.1445103088499675,1.0642769894437873,-0.13164435532718405,-1.5296585268910803,-1.3342605629009987,0.6552049326025915,-0.2096630238853502,0.5623352607590795,-1.2219223974838,2.3849321456993686,0.5222837633719497,0.4053581759903509,-0.5174406527636459,0.40190874642550606,0.2926750837974007,0.2646509332295411,0.18007529950557657,-0.5668403355556669,1.8086012121504687,0.15872793693275308,-0.48516348423946726,-0.5278385934077631,1.489292310055706,-0.45776618603975944,1.3977001253233319,-1.4503629056252103,0.8267049568169671,1.2028735276792328,0.4989940435529362
0.015697366202706408,0.4404347547261034,0.5187081947485029,-0.5648426679009239,-0.2786319218561054,-1.6672602365814333,-0.7053271189634704,-0.3325141331799726,0.7111239432525658,2.4462897097810026,-1.5312967851935952,-0.6379991259142596,-1.22331145802113,0.8551026210227218,-0.18041759064766202,-0.17028989571252087,0.9481477225046568,0.21360243152563738,-0.09578610853722777,0.7673723277847548,-0.011285806240059273,0.018199022419952575,-1.8890562643042612,0.4968871543492586,1.1157696499538399,0.8371492344038051,-0.5123788440567466,1.3173666520430038,1.7944531764594247,0.7940940802388753,-0.028265776858895853,1.0924524956571389,-0.6068720783314451,-0.5335071131270133,0.19506752668805322,-0.32307113016986283,-0.010659250553327356,0.7012572024839435,0.12708148736204442,2.26839244056789,1.0173781008593992,1.6056814944566447,-0.3175127866930927,-0.6805286434040413,0.777720221732668,-1.0461270785143517,0.7400484595004574,-0.6272100571697516,0.42109018123846037,0.2104204944948278,-0.29465337919934576,0.07000708322402623,-1.4226853912615227,0.5716709715608849,0.4172070746953104,-1.6442887914556914,-1.3312832460346424,-0.28819488477361127,0.18422934652745207,0.12320753473707861,0.31057793777833814,-0.617458938206101,0.6476713065261663,0.4155220564390905,0.4607567262883054,-1.081371847605484,-0.413879637269231,-0.9111539942205977,-1.8878924062592537,-0.4052071478089269,2.534358379060201,1.4097635445573342,-0.42581285252923773,-0.7302180132729187,-0.3232064062718632,0.7294756529926193,0.962406246956024,1.0190893477084386,0.8878668098214821,0.011790511750799497,-0.6738938222313992,-0.15072456973702122,1.0640678027355837,0.7655687403740669,-1.343235507598341,-1.0112072680268733,-0.21101711141070176,1.0327191095591355,-0.554123352333639,-0.17392850830749748,-1.7144515011425232,0.36633330606511266,-0.0003929905148896725,0.2427397008998014,1.1604276531749846,-0.5457103265622821,1.212792156572209,-0.09080668951639756,0.02370916981085344,0.6021487674383219,-1.6594313130979146,-0.4516186176507711,0.23799087474596486,0.2625751688167684,-1.0897196287113948,-1.478360711031826,0.5445683462341105,0.7897264156437874,0.017938862280522105,-0.03559822237604428,-0.6135624473230034,2.273891362464454,0.009329475344791668,0.9028042337362019,0.49964126337281073,1.132830510845865,0.15057524474940404,-0.5062463277549966,-0.22207789216226587,0.577144492115603,-0.3984120288904382,-0.8511051272400755,-0.537806520189077,0.5534556792279508,0.45053472426538144,-1.8922017691730912,-0.38661046634002977,0.9924236880311773,-0.7468284008409708,-0.6595044464187155,0.797999934960286,-0.2141099758960175,-0.6722876660982923,-0.5530025051196541,1.0930685851689503,0.5139147261759001,-0.3106491871387172,-0.6475270393365593,0.16146157583542453,-1.0845351888824062,-1.08155886107359,-0.26075726435634916,-0.18371508760725286,0.7589391369794816,1.0904994824158114,0.45262876631067794,0.11729583559749801,0.26887586398394653,-0.7505824446044455,-0.0958616069640634,1.1484756353450896,-1.1191731759721064,-0.05841956278060381,-0.23058346887663092,0.3779946098702935,1.3431793084849584,-0.00040433084619516884,-1.5228742225183267,-0.14437763355214542,2.085112845016996,1.6358237814510537,-0.004330446515154578,0.5503111001300495,0.1275238486258342,1.0624771624073448,-0.81698806345787,1.6044924281858766,0.09254763163127583,0.4859372405664195,0.8203999562866406,0.8423604097626859,2.2085650422219785,-1.2695817731569425,-0.7591619874565977,-0.49926905272106803,-2.0683160091544575,-0.05060183069164598,0.647913364483561,1.4622451057928267,0.6007924127503359,-0.000345491440745471,-0.655025841567121,-0.9343730517327318,-0.8203908027670958,-1.0614832235389196,1.5806121507915154,-1.410594829980778,0.06836345701569148,0.07046326231390489,0.8309819874942244,0.6554762406253118,-0.4285032445587797,0.38148021840097807,0.21586074706754074,0.27849899648294274,1.3540873187888152,0.716668156276167,-1.321185983791509,0.11495556576471745,-0.8662124730677981,0.658932722612169,-1.195485893660758,0.4343927147201395,1.0810795583570758,-1.5845888768340894,0.46737197964178756,-0.4583265096681451,-0.2495777069705091,2.775730621582916,0.16351023551368468,0.06215681568366754,-1.5337905864061112,-0.5699094447680252,0.16393606734190805,-0.5516184194745101,0.1759668395162213,-0.3941971061801507,0.59686330211318,0.0020291806640741557,-1.6963688896618476,0.9349910114470121,0.13647027443983858,0.9767981617580608,-1.1252720314509659,2.036066581209857,-0.616067946971065,-1.6354046696485647,0.88264999104815,0.38944708550518925,0.11218585373019233,0.533078071787556,0.8247279820533953,0.449408537817298,0.3265576113628692,-0.4342201836811466,-0.4034698655198476,-1.069784630954602,0.57186752725088,2.0549579179395936,1.3047728081138206,-0.3732390934717667,-1.1315711721066666,0.3581585078027955,-0.020445885306211234,-0.4772803842455695,-0.9324257310721858,-1.4049778031001827,-0.5634495022673024,-0.3963831086769946,-0.29873138108291314,-0.06089284365110146,0.8126011786007062,-0.733219226685167,0.28246608701026643,0.3241052836345532,-1.1765967799699222,-0.39847492240328714,0.39749910995011056,-0.41329241851062526,-0.8800870961816828,1.459091631445988,-0.774468937130647,0.3871432994380156,-0.44134756589422874,-0.0776159704704708,-1.442882326531029,-1.0205682888494922,0.5895076558020066,-0.008275202246780099,-0.5981265255651378,0.03209604703293347,0.0062336973935891065,0.445862639623878,1.2007399964615457,-1.9688918837103957,-0.14902999913399928,0.617388616988649,-0.12162835685133834,1.455319398679492,-0.7380408893136737,-1.894981390564504,-0.4740196697089953,-1.7537617558616823,-0.28889879240743566,1.0245685244988278,-0.29087807642543606,-0.7745290141181558,-0.7334642261321013,0.5602283595414786,1.8253119011353103,0.5958931534894933,-0.9885301660987631,-0.524532243740158,0.25874052785982443,-0.011754408008757045,-1.0043673701664433,0.03281416627335773,-0.5839050299090519,0.10605604206007992,1.2373646859340564
-1.4075071357664741,-0.8203016555909037,-0.2273191860811541,1.491569349769531,-0.1538519413334852,1.912658229577188,-1.2628507562695215,-0.35248794273796963,0.241705522361234,-0.9352931017022554,-0.3188607483579884,-1.3293957447536389,-0.6920315433345234,-0.25848257033669153,0.30552956668323955,0.762500982750415,-0.9364670148256609,-0.6006451415845814,-1.098112732864378,0.9008065703803285,0.33611169890400394,1.1084404340784806,0.28357014507741235,0.9992638200461939,0.05073502039765105,0.984090991942189,0.19726565033240057,-1.1216892900557134,-0.9097762138779751,-1.0857531581451654,0.10059918564108584,1.0320304443992434,-0.6928133025341818,-0.4570458454322724,-0.6785896992014462,0.2513725036967678,1.1374686799116236,-0.11182146860633105,0.6512125908792046,0.2859799459657957,0.910557000911923,-0.9491126690348577,-0.3295479228647917,0.17577246967562726,-0.8539615231293207,0.32315278121851526,1.0447932185463227,-0.8522632562153357,0.31581946689278323,-1.3611941556981288,1.1255455006601658,1.7873190532649532,0.9771444971038293,-0.4059731755863051,0.32540126222625043,0.42700841674689305,0.2845896151871409,0.3501301748685203,-0.2590065746628545,0.37304948567622515,0.12621623302409554,-1.2935813145940103,1.073852628144697,-0.3348090468790326,1.1080823771666193,0.7766797581992798,0.6479647884749299,1.440205980325517,-0.4798590662055358,0.48880908281525626,1.3580925645601323,1.7221144304968568,-0.8555456581292117,0.9114573481321331,0.4003733154481741,0.8630966787486181,0.22113667334993453,-0.3577991676314973,-0.7549192858217187,-0.6244546999758086,-0.5447507078948874,-0.8304317584244328,-0.7811104286030486,1.336733102548565,-0.3470935177680427,2.6026776611819176,-1.0317160105621639,-1.5483206845908515,-0.5165916626890431,0.7125486752088258,-0.5646327907793277,0.3191383774565062,0.6945600778622613,-0.27510114097689226,-0.3316156361612298,0.5489338965241026,-0.6876031219379217,0.6609117932493813,-0.5274889721980024,0.29476784856715366,-0.6992023961349808,0.3806250710645853,0.40529774515498695,0.15757237881133074,0.5831499693183226,-0.10105497739604195,-0.29041489252409947,-0.807833614633084,0.26672790551763687,-0.2556666818364959,1.0284467625000173,-1.1196360880103027,0.22144449705593552,-0.7463295631036087,-1.2742579935447162,-0.5577913298546207,-0.1768941653037458,-0.3080894466461219,-0.015547840996627187,-0.31311986806764347,-1.8948594977019153,1.4063879364244702,0.06339903038687009,-0.029170490823279837,0.32542221423448175,-0.6632827227809697,-0.045339960773219445,-1.2051422158957492,1.0193486357397623,-0.08044771230519424,-0.1722339584303397,-1.8085505990397868,-0.39178574586213766,0.025239898613300928,0.9882212831338717,0.37010437978763955,0.4605803705817364,0.20297560938597242,-0.6278200339163263,0.14244862235650282,-0.5225357747575936,0.009558260818117541,0.4745612654359792,0.2841685815023836,-0.720534501831025,0.9307763559221712,-0.005353672807155781,0.9411408278684884,0.990292725527944,0.4322273624143401,-0.47118292728667904,-0.14320430045895208,0.27827181782479116,-0.7001583763860468,0.9383706941819373,-0.2689264124701525,-0.11376100399554885,0.8759283066436744,-0.5072618940537694,-2.074795164448658,-0.5010844136067448,-0.1262635796065154,0.5598634221743608,0.9958307105731272,0.5209206140226048,1.2421348813169892,-1.0300530098038199,-1.4634184660277079,-0.90313902547391,1.9196837323843314,-1.4340372117503537,0.3994733879242902,0.8643310402449288,-0.8103443851508628,-0.032221391291397714,-0.6620640900164693,-0.9770989863457019,1.1002697956836998,0.022824970287673958,-1.8146073444283897,-1.5053616878675309,0.6883196915816838,0.7566169637097201,-0.7404201063819039,0.9097378532855825,0.5277715650565663,-0.8964621391620764,2.022700335656362,-1.320394111755768,0.2258595632038933,-0.36116421409805605,-0.0846069248717108,-1.6076182179685046,-0.8393373453238916,-0.4952019175210804,-0.8696377967796909,0.3096275497848858,-1.4815232890179326,1.0072050361390463,0.07210461145099359,1.2385877769274658,0.057048522023182904,-0.2699355180075852,1.1107249720587526,-1.8912007970415503,-2.1234827281950217,0.5425245781377144,0.5043599839704902,0.5485053315767124,1.0735365225412132,-0.3254839417801228,1.8055247869685938,0.10112093297893568,0.38983487939554706,-0.940847501407363,0.4614836887049604,1.095909924276381,-0.8670472857136438,0.40131504784929856,-0.9137766354749222,-0.2801669173766148,-0.1372355729011234,0.7784231968835003,-0.7581628147233308,-0.08942730375696277,-0.44440537223978394,-0.0032184712349518528,0.042062523348990376,-0.3802048691431419,-0.08181256451164054,0.06105115041412979,-0.31665460805026696,-0.914348752935838,1.2358157090587547,0.14864478474151757,-1.1878328566920353,1.2529869627334438,-0.4033401169574961,0.7780542389737368,1.1039356712761548,1.0711553839690675,-0.54295487350422,-0.6416499123230859,0.9581972963756262,-0.27834055341280944,-0.4566306292613785,-0.3493041665364781,-0.30675566615692484,-0.07075918816231537,0.9800352149188643,-0.3748043788048529,-1.4954143952875214,0.38135012523276973,-1.1547823951796428,-0.007335187442793271,1.8956623318698567,-0.06572892044090095,-0.8711631050220824,-0.42822998412804,1.1465546486964533,1.448481288495501,-0.7206854427098556,0.23461429384960258,-1.0319689553549465,-0.7379776308912067,0.5816708377108472,0.3338005778348356,1.158656346515003,0.6716012202397762,0.4139561540986562,0.05946953614976651,1.0263944009067976,-0.9815540729309282,-0.6558900164179037,0.7479329521778062,-0.43444807424378246,-1.0246730705874345,-0.05551477969126434,0.36266481256781036,-0.03809452822271347,1.1016169137100802,0.0415352601256522,-0.5803233618185197,-0.9970466465940374,0.5914340481469574,0.48626301337998307,-3.172355048208302,-0.0022081465733498583,-1.386962887296834,-0.19883244143858622,-1.8305200411280371,1.1960285543525442,-0.36620366211472055,0.9835533480147626,0.023706458596489864,-0.03924061722812241,0.05303592790387732,-1.0565197822557821,1.6501496508576297,-0.328315386985336
0.1834887400848066,0.9942984775380483,-0.726248748894853,-0.4828764808556588,-0.3811297175837932,0.508417632880196,-0.4674132043519024,-0.3100629941890157,-0.7055328197532942,0.148218298897499,-1.1554374606646318,-0.19329934325750903,-1.1551199710184317,-1.1978428816179312,-0.33746225466001495,0.8070384205292183,1.3434371982564222,0.43333555007925123,0.6430359757134985,-1.8853272687544889,0.17351623820099424,-0.4945643100965349,-0.7850203585319586,-0.24342964731361313,0.7563187199274543,-1.5853436677994701,0.048804696777751566,0.6279234508284555,-0.12023796522109337,0.08885332349375874,-0.2548186477699963,0.277764346653225,-0.19123799586402235,-0.8799677670337696,0.0227879623044997,0.13095566440965775,1.007879185750111,-0.9068631258773416,-0.12398518711577695,0.2884535031806416,0.08139820453760822,1.40128642821079,0.18011463879303624,0.5132936299325492,-0.6468071025089384,1.1866530688303614,-0.1368246460378806,-1.0500502627008705,-0.31396785775987157,0.0381482023740773,0.39807275692326827,-0.315567278902533,-0.06841738916325903,0.5690653400617676,-1.211568151844602,-0.22401794052668775,-0.8980564937796992,-1.3450061117253003,-0.1790372746361117,-0.3313803159119075,1.4148372588672897,0.1127379613242264,-1.146076415260248,0.5726639083601225,-0.48659276007838914,0.7135467582106393,0.9861698581418803,-1.2656427125358323,-1.6870519317627795,-1.0893624368521635,0.07763586438704914,-0.47272985656287536,-1.3178711801782388,0.008856015075132145,-0.4353115332445512,0.707259954424481,-0.8433868595393192,-1.2258575378024263,-0.6417585601059337,-0.5951880683618219,0.38325265159359484,0.9580082053404606,1.281424565028544,0.9807620247434352,-0.46362180391897084,0.7957828162129047,1.4573931961260265,-0.9448108949825506,-0.9193346929063337,0.2692845924239161,-0.4807749731072537,-1.3250369868100726,0.4103316787795444,0.059899705499062796,-0.5711600113297932,2.2320203425804666,-0.7607114295894791,-0.6798720978817452,-0.0022021516740870655,-0.20471002355843704,0.3003464774312538,0.200955759357271,-0.3071536359443992,0.8953133213299921,-1.7514992836930372,-0.3504168810190717,0.7782868512536721,-0.3654557587098079,-0.2536022260806718,-0.29825921934404315,0.30786225169786774,-0.10214908962161756,-0.9023802049454576,1.1932247048215379,0.06573688308172008,-0.36863623150612784,-0.8831203901294814,-0.8251738066546024,0.08329004265628188,1.1567660837499825,-1.2868100006037817,-0.9210444202233278,-0.5011222752257678,-0.3194526685216674,0.3901878097818669,0.16281390318299088,0.6030909833744645,-0.903757661142694,1.1272818810466905,-1.4019965638906706,-1.541921930052019,-1.324390513242133,0.33230225390342283,1.2462672776714523,-0.2516477916159154,-0.5205947023388896,0.414217713844156,0.22557208145631946,-0.8184143840132599,-1.5448622888506784,-0.1589621661167909,2.5956300245328934,-1.479718682765284,0.5366193932387983,-1.3914811297690044,1.0935493651808637,0.2634812061100755,0.6214304507476717,0.07360664718147675,-1.319588900599448,-0.14643759487754654,0.6962865121670903,-0.3006897526977871,0.09720351591876378,0.36635645137365735,-0.19563393799912895,-0.5309400272951535,1.1846143019425721,0.46261584743636985,-1.1159766709662782,-1.4019167658728053,-0.6983898971940369,0.2545516750353652,-0.32606070421516536,-0.28937645668891876,-0.09233126377322737,-0.7529337574974762,-1.075593881373222,0.7278011841901895,-0.2498100433836839,1.0055842100055103,-1.5427202183585504,1.5053072935010394,-0.6888414798166278,0.7616193546960554,0.7257602769443703,1.4648547130000455,-0.14515270044895165,-1.9503991637999454,-0.5285105668058557,-0.6559145560685374,-0.9267503926155359,-0.2462710869273939,0.6907136684267822,0.3318049874214405,1.7203689626284708,-0.7086353507458284,-0.2130953320966103,-0.48477994778719635,-0.7409798433460801,-0.6643020653503839,-1.2620606266024317,0.594302351417928,-0.7530823707443086,0.9393814545829785,1.0291596719535152,-0.5091991429875583,-0.6772970941277027,1.4526761721259138,0.020325722913083717,0.627452742190257,-0.659395438057949,-1.488048822032291,-1.5269176797299304,-2.1240649499733713,1.4370874312891482,0.15837601326674997,0.7871433851667907,-0.6930059649311436,0.33643067524749226,-1.3008721701418706,-0.24620515817808333,0.5961270134202532,-0.2975342679322774,0.5091970084539419,0.5552162081034839,-0.6822555502937612,0.9867064600166222,1.6074867008045124,-1.3677108016181894,-0.2448329550942404,0.1413366452484688,-2.1447513199272676,-0.738194070597385,0.29696267510335617,-0.4861091279272475,1.6198085746750743,-0.07835459529656127,-0.020574122610020885,-0.06346211785885973,0.3310857426566985,1.0727437776568935,1.2331287453778053,0.17546003014869704,-0.24041868914159795,0.33879888156009075,-0.36266231220351675,0.42901944239675277,0.09038685199044326,-1.2555178868426387,-0.042179042299257924,-0.39653204605466535,-1.13279227118162,0.37394415719834717,-1.3582239535777578,0.6983636281621731,1.2372540131415235,-1.5417569972361058,-0.5039859110411746,-0.5341604243098369,-0.43233436087077787,-0.24565943444064323,0.3333784993080732,0.6178080211982341,1.061599555320406,-0.2146051650663728,0.05447943955258752,-0.3294673260306307,-0.205900620784775,1.513231727677419,0.4908826352195055,-0.9919700454972729,0.7910105501106662,0.7747700333356915,-0.1412485817799005,-0.9467031401836936,0.18482502061812828,0.6968130506177772,-1.9961973827688506,0.19078544436711933,1.0816895164944056,-0.8910769047938524,-0.32532720820572936,1.1897748884607577,0.5893330972978729,1.040940434648703,0.2533047581269161,0.5522251101998009,0.30859626503581833,0.38558361250385237,-1.0171384294741612,-0.3604079434442636,-1.6279561938411444,0.44541216280317164,0.8852109369309619,0.4404861148422571,0.7795443544253033,-0.549375440988483,0.42652397516764995,-1.083490906341844,0.19797853777125282,0.5387930546078927,0.19878066020359111,0.2592619355503697,0.37043359094634765,-1.3946110652355177,-1.2029675453126574,-0.15527380925174195,0.2880729808932361,-0.47102731009364834
